{
  "featureLength": 86,
  "labels": [
    "0",
    "1",
    "2",
    "3",
    "4",
    "5",
    "6",
    "7",
    "8",
    "9",
    "A",
    "B",
    "C",
    "D",
    "E",
    "F",
    "G",
    "H",
    "I",
    "J",
    "K",
    "L",
    "M",
    "N",
    "O",
    "P",
    "Q",
    "R",
    "S",
    "T",
    "U",
    "V",
    "W",
    "X",
    "Y",
    "Z"
  ],
  "layers": [
    {
      "units": 128,
      "activation": "relu",
      "W": [
        [
          -0.348641037940979, -0.14887426793575287, 0.0251346193253994, 0.05367600917816162,
          0.0937088131904602, -0.10355854779481888, -0.2704637050628662, -0.12897047400474548,
          -0.1075800433754921, 0.02790202759206295, -0.4208172559738159, -0.11273271590471268,
          -0.4073731303215027, -0.3375251889228821, -0.08716419339179993, -0.4079838991165161,
          -0.4257064461708069, -0.41673728823661804, -0.3113803267478943, 0.052453141659498215,
          -0.0459970198571682, 0.010318487882614136, 0.19849653542041779, -0.1890028417110443,
          -0.20272964239120483, -0.2021809220314026, -0.09811370074748993, 0.07547278702259064,
          -0.36190566420555115, -0.4135829210281372, -0.42859840393066406, -0.197806715965271,
          -0.4996982216835022, 0.0450911745429039, -0.09059137105941772, -0.09557952731847763,
          -0.372004896402359, -0.061401091516017914, -0.34357360005378723, -0.21366804838180542,
          -0.2927749454975128, -0.4624946415424347, -0.40355122089385986, -0.32444801926612854,
          -0.30862703919410706, -0.18166697025299072, -0.385750412940979, -0.755491316318512,
          -0.3400838375091553, 0.050538767129182816, 0.24508704245090485, -0.11026360094547272,
          -0.08559194207191467, -0.27830949425697327, 0.05639684200286865, -0.20052914321422577,
          -0.3335670232772827, -0.14421752095222473, -0.25601524114608765, -0.44385063648223877,
          -0.31500208377838135, 0.015702029690146446, -0.5162986516952515, -0.5669065713882446,
          -0.2814978361129761, -0.31822049617767334, -0.06706947833299637, -0.1159396693110466,
          -0.11056896299123764, -0.13910746574401855, -0.24681657552719116, -0.582348108291626,
          -0.6201220750808716, -0.5091484189033508, -0.3596974015235901, -0.09087749570608139,
          -0.2665097117424011, -0.3561204671859741, -0.13694824278354645, -0.39113470911979675,
          -0.19680435955524445, -0.3362977206707001, -0.024505343288183212, -0.8050652146339417,
          -0.331587553024292, 0.1494491696357727, -0.45364615321159363, -0.375535786151886,
          -0.41484472155570984, -0.10823805630207062, -0.22537681460380554, 0.024045651778578758,
          0.1513548642396927, -0.4296140670776367, -0.03217523545026779, -0.42341750860214233,
          -0.4571229815483093, -0.10235235840082169, 0.10354938358068466, -0.13957563042640686,
          -0.2530222535133362, -0.30963146686553955, -0.16230742633342743, -0.3526439964771271,
          0.10841398686170578, 0.12910021841526031, -0.4474090337753296, -0.23654261231422424,
          -0.42200520634651184, -0.6318052411079407, -0.628364086151123, -0.021879633888602257,
          -0.0661473348736763, -0.14251317083835602, -0.10997292399406433, -0.43002352118492126,
          -0.6419012546539307, -0.554523229598999, 0.03719303011894226, -0.13957244157791138,
          -0.2507574260234833, -0.4032500386238098, -0.1682516485452652, -0.13390009105205536,
          -0.2434958964586258, 0.09783194214105606, -0.10845959931612015, -0.012930384837090969
        ],
        [
          0.06558261811733246, 0.1119801253080368, 0.09778185188770294, 0.09814439713954926,
          0.05209068953990936, -0.06483017653226852, 0.10977901518344879, -0.12387718260288239,
          -0.07441270351409912, 0.025156646966934204, 0.14213334023952484, 0.0471675843000412,
          -0.05485602468252182, 0.1624077707529068, 0.0843675285577774, 0.018958091735839844,
          0.1376669853925705, 0.0401826947927475, -0.16599540412425995, 0.029889240860939026,
          -0.04973291605710983, -0.001512676477432251, 0.1359349638223648, 0.023654788732528687,
          -0.032902300357818604, 0.08352454006671906, 0.05620002746582031, 0.1148158460855484,
          0.14014406502246857, 0.1674235612154007, -0.015908509492874146, 0.08786679804325104,
          0.07037797570228577, 0.12152104079723358, 0.13917408883571625, -0.014457523822784424,
          0.1468527466058731, 0.1564726084470749, -0.16609780490398407, 0.04693053662776947,
          0.13725267350673676, -0.013517484068870544, 0.059502869844436646, 0.09405799210071564,
          0.145171120762825, -0.05020514875650406, -0.06386575102806091, 0.12551860511302948,
          -0.04404623061418533, -0.02042640745639801, 0.0941135436296463, 0.06426021456718445,
          0.1339063197374344, -0.02459527552127838, -0.03214526176452637, 0.098342165350914,
          -0.03959976136684418, -0.008658498525619507, 0.10905082523822784, 0.04243168234825134,
          0.12889660894870758, -0.045064955949783325, 0.00010834634304046631, -0.13195273280143738,
          0.12730903923511505, 0.10636977851390839, -0.11370757222175598, -0.07653797417879105,
          -0.07926222681999207, 0.1226547509431839, 0.1291685253381729, -0.12596389651298523,
          0.08455727994441986, -0.012164413928985596, -0.15118186175823212, 0.010872513055801392,
          0.09973718225955963, 0.04809214174747467, -0.05277954041957855, -0.01235923171043396,
          -0.12759745121002197, 0.0514153391122818, 0.02887427806854248, 0.04220855236053467,
          0.09293173253536224, -0.01138518750667572, -0.051095686852931976, 0.022053971886634827,
          0.050837546586990356, -0.004522562026977539, -0.13962118327617645, 0.11921672523021698,
          0.08008274435997009, 0.020449519157409668, -0.11242836713790894, -0.07141698151826859,
          0.005260393023490906, 0.13648109138011932, -0.05453972518444061, -0.07599232345819473,
          -0.14356783032417297, 0.0077485591173172, -0.056705355644226074, -0.13500678539276123,
          0.03617255389690399, 0.15061433613300323, -0.16391871869564056, 0.15808935463428497,
          0.04717428982257843, -0.08200675994157791, -0.08723834156990051, 0.052063509821891785,
          -0.04430308938026428, -0.04418943077325821, 0.03277681767940521, 0.14220206439495087,
          0.14848043024539948, 0.13327349722385406, -0.028945371508598328, 0.07450790703296661,
          -0.1377698928117752, 0.024149984121322632, -0.060438431799411774, -0.00483742356300354,
          -0.0898846685886383, 0.022126346826553345, -0.05283571034669876, -0.07600370049476624
        ],
        [
          -0.14957748353481293, 0.09405983984470367, -0.05942390859127045, 0.06112903356552124,
          -0.0038014203310012817, -0.014686867594718933, 0.059245139360427856, -0.03565768897533417,
          0.03896935284137726, -0.14585435390472412, 0.12243606150150299, 0.159160777926445,
          -0.049498893320560455, -0.1193932592868805, -0.03518557548522949, -0.03656306862831116,
          -0.09104614704847336, 0.14570631086826324, 0.022054210305213928, -0.029538854956626892,
          0.029651746153831482, -0.02928638458251953, -0.0028092563152313232, -0.14294853806495667,
          0.02647298574447632, -0.11976265907287598, -0.08730369061231613, -0.13873228430747986,
          0.05917239189147949, 0.138518825173378, 0.04171600937843323, -0.026992693543434143,
          -0.05701850354671478, -0.05876092612743378, -0.08799462020397186, 0.07093796133995056,
          -0.07488337904214859, -0.0913427323102951, 0.08901841938495636, -0.028159797191619873,
          -0.14065711200237274, -0.09214719384908676, -0.06470322608947754, -0.0974297896027565,
          -0.005627959966659546, 0.01710408926010132, -0.05995047092437744, 0.004057198762893677,
          0.09800989925861359, -0.03538346290588379, -0.016890019178390503, -0.07661952823400497,
          -0.08171693235635757, 0.02324044704437256, -0.1631011962890625, 0.12256495654582977,
          -0.14124827086925507, -0.1239326000213623, 0.13337893784046173, 0.11160145699977875,
          -0.11706047505140305, -0.11279772222042084, 0.10489965975284576, -0.01869368553161621,
          -0.1664137840270996, 0.08077162504196167, -0.0810585469007492, 0.0909462720155716,
          -0.07897694408893585, -0.1632044017314911, -0.10826569050550461, 0.11125557124614716,
          0.08584748208522797, 0.15712670981884003, -0.13275760412216187, -0.05768918991088867,
          -0.0660514235496521, -0.11771208047866821, 0.036544546484947205, 0.07785175740718842,
          0.1582583636045456, 0.1535756140947342, 0.1507578045129776, 0.125344917178154,
          -0.012363910675048828, 0.11288730800151825, -0.13370047509670258, 0.006194606423377991,
          -0.14450287818908691, -0.09428375959396362, -0.1431589126586914, 0.0041522979736328125,
          -0.1567549705505371, 0.06984932720661163, 0.11944536864757538, 0.005506962537765503,
          -0.011191800236701965, -0.07703898847103119, -0.05077299475669861, 0.09315063059329987,
          -0.1669187843799591, 0.0487169474363327, 0.1658666580915451, -0.01264798641204834,
          0.1617630273103714, 0.10057337582111359, -0.05558639019727707, 0.08844928443431854,
          -0.062390007078647614, 0.0005298405885696411, -0.016913384199142456, -0.05259861797094345,
          -0.07921531796455383, -0.09622953832149506, 0.0077760666608810425, 0.012958824634552002,
          -0.1310584545135498, 0.12678544223308563, 0.01432354748249054, 0.0553775280714035,
          -0.09507133066654205, 0.06133207678794861, -0.16375702619552612, 0.04746025800704956,
          -0.04399968683719635, -0.041390806436538696, -0.05427353084087372, -0.05911215394735336
        ],
        [
          -0.20517276227474213, -0.2718372046947479, 0.24683044850826263, -0.07462014257907867,
          -0.30485817790031433, -0.09976983815431595, 0.08966537564992905, 0.18408319354057312,
          -0.08998949825763702, 0.11254699528217316, 0.7606919407844543, -0.15242666006088257,
          0.021581606939435005, -0.2811073362827301, -0.33562377095222473, -0.3279559910297394,
          0.5016475915908813, -0.6105895042419434, -0.12633655965328217, 0.06648619472980499,
          0.2582894265651703, 0.28160232305526733, -0.272772878408432, 0.1997106969356537,
          -0.6063535213470459, -0.07479991763830185, 0.13168233633041382, -0.2753828167915344,
          -0.2640669345855713, 0.6586375832557678, 0.14200221002101898, 0.07682547718286514,
          -0.050155360251665115, 0.03988304361701012, 0.22837673127651215, 0.01471777819097042,
          -0.10109314322471619, -0.32980191707611084, 0.38819414377212524, -0.08875716477632523,
          0.010808713734149933, 0.5391110181808472, -0.08700502663850784, -0.20774102210998535,
          0.03272762894630432, -0.2241739183664322, 0.16899316012859344, -0.047474585473537445,
          0.7300404906272888, 0.3905831277370453, -0.4732716977596283, -0.18567822873592377,
          -0.11178888380527496, 0.7314500212669373, -3.7438294384628534e-6, 0.8949419856071472,
          0.08339908719062805, -0.6502487063407898, 0.25214385986328125, 0.5333202481269836,
          -0.12079984694719315, 0.1838066428899765, 0.45273375511169434, 0.260815292596817,
          -0.13013771176338196, 0.2002502679824829, -0.366093248128891, -0.26399898529052734,
          0.34739693999290466, -0.09498976916074753, -0.7164968252182007, 0.28523561358451843,
          0.49382710456848145, 0.78510981798172, 0.2729565501213074, 0.3836507499217987,
          0.5357435345649719, 0.029122890904545784, 0.23123864829540253, -0.6992893218994141,
          -0.3940139710903168, -0.20838749408721924, -0.14412584900856018, 0.31177112460136414,
          -0.30450519919395447, -0.32152897119522095, 0.5726222395896912, -0.16797998547554016,
          -0.5909929275512695, 0.2804625332355499, -0.4036692678928375, 0.4391273856163025,
          -0.69290691614151, -0.16285072267055511, -0.38724878430366516, 0.23573529720306396,
          0.00990312173962593, -0.47993147373199463, -0.1755552887916565, -0.1960069090127945,
          -0.47790107131004333, -0.24060554802417755, 0.34646180272102356, -0.05865165963768959,
          0.42311838269233704, 0.35247400403022766, -0.5103622674942017, 0.45850756764411926,
          -0.572394847869873, 0.6070992946624756, -0.35078898072242737, 0.33716970682144165,
          0.333966463804245, 0.1171800047159195, 0.036167263984680176, -0.5496877431869507,
          -0.2559181749820709, 0.17745059728622437, -0.17581306397914886, -0.2846154570579529,
          -0.4855952858924866, -0.3150237202644348, -0.02343749813735485, 0.39459264278411865,
          0.15616609156131744, -0.24631303548812866, -0.0527566634118557, -0.3639598786830902
        ],
        [
          0.25653401017189026, 0.4180517792701721, 0.35390976071357727, -0.4869535267353058,
          -0.07914655655622482, 0.37685999274253845, -0.26987263560295105, -0.5151678323745728,
          -0.2463432252407074, 0.6287928819656372, 0.2205638587474823, -0.21655495464801788,
          -0.607166588306427, -0.2572089731693268, -0.08816425502300262, 0.034388747066259384,
          -0.07790018618106842, -0.9086735844612122, -0.4519500136375427, 0.3362409174442291,
          0.18006384372711182, -0.6840727925300598, 0.17989394068717957, 0.4652155637741089,
          -0.4277300238609314, -0.2586798071861267, 0.40307751297950745, 0.050803814083337784,
          0.3287903666496277, 0.44468167424201965, -0.390666663646698, -0.7124667763710022,
          -0.007985896430909634, 0.09920450299978256, 0.2869808077812195, 0.5775471925735474,
          -0.2704140543937683, 0.1574964076280594, -0.0009021272417157888, 0.27921438217163086,
          -0.07164787501096725, -0.3438946604728699, 0.3343958854675293, 0.12608776986598969,
          0.31354010105133057, -0.13128256797790527, 0.45765888690948486, -0.15164229273796082,
          0.5607300996780396, 0.5322091579437256, 0.22787852585315704, -0.126501202583313,
          -0.2571996748447418, 0.913408100605011, 0.1691177785396576, 0.5143994688987732,
          -0.18870922923088074, 0.2171747088432312, -0.02219572849571705, 0.025535421445965767,
          -0.36962422728538513, 0.35746586322784424, 0.30220827460289, -0.09123630076646805,
          -0.5037000179290771, -0.2983480393886566, 0.4886600077152252, 0.43100839853286743,
          0.3124370276927948, 0.2787213623523712, -0.4000168740749359, 0.03534150868654251,
          0.49900078773498535, 0.011613304726779461, -0.23081187903881073, -0.20357201993465424,
          0.09240865707397461, 0.5794220566749573, 0.4600044786930084, 0.5594915747642517,
          0.2763279676437378, 0.12801338732242584, 0.03549576178193092, 0.41723504662513733,
          0.39266300201416016, 0.3281899094581604, -0.10385268926620483, -0.22488079965114594,
          -0.5622369647026062, 0.39109358191490173, 0.44638535380363464, -0.8431988954544067,
          -0.6347067952156067, -0.21792636811733246, -0.03743516281247139, 0.010986496694386005,
          -0.5113382935523987, 0.40374094247817993, 0.41834303736686707, 0.20401737093925476,
          0.002865543821826577, 0.14142107963562012, 0.7222976684570312, 0.2957574725151062,
          0.2167930006980896, 0.14445625245571136, -0.5127381682395935, -0.2350354790687561,
          0.6837892532348633, 0.5263609290122986, -0.10665980726480484, -0.16594620048999786,
          0.007312413305044174, 0.4655293822288513, -0.018286600708961487, 0.2718665897846222,
          -0.7096548676490784, 0.5110957026481628, -0.48679664731025696, 0.19969730079174042,
          0.14324799180030823, -0.05950453132390976, -0.06871051341295242, -0.3787916600704193,
          0.16465958952903748, -1.261276125907898, -0.35893934965133667, -0.19321423768997192
        ],
        [
          -0.20047304034233093, -0.10563576966524124, 0.18958735466003418, 0.2500271499156952,
          -0.289137065410614, -0.10300904512405396, -0.026592280715703964, -0.05664215609431267,
          0.015210538171231747, -0.021713778376579285, 0.35169196128845215, -0.20215414464473724,
          0.20747190713882446, 0.22626054286956787, -0.2728438675403595, -0.2374456375837326,
          0.022345084697008133, -0.17946144938468933, 0.1489410251379013, 0.13453362882137299,
          -0.0789804607629776, 0.23350664973258972, -0.3304026126861572, 0.19517825543880463,
          -0.28414633870124817, 0.09225084632635117, 0.011321963742375374, -0.21199433505535126,
          -0.07121919095516205, 0.22084498405456543, -0.00451382203027606, 0.17485205829143524,
          -0.21807439625263214, -0.15852800011634827, 0.3630113899707794, -0.07782551646232605,
          -0.12251045554876328, 0.02527250163257122, 0.25109750032424927, -0.25438475608825684,
          -0.05993800610303879, -0.100822314620018, -0.4882272183895111, -0.08378628641366959,
          0.3048456311225891, -0.050584565848112106, -0.003569558495655656, 0.19200314581394196,
          0.33695629239082336, 0.2927939295768738, -0.41463613510131836, 0.09309021383523941,
          0.014688470400869846, 0.15057989954948425, 0.18211926519870758, 0.08227713406085968,
          -0.03669381141662598, -0.09149231016635895, 0.016479698941111565, -0.11373114585876465,
          0.04810378700494766, 0.5577570796012878, 0.1109037920832634, 0.3314683735370636,
          -0.10167454183101654, 0.06466908752918243, -0.15266498923301697, 0.1255493462085724,
          0.3444313108921051, -0.3004288971424103, -0.18098782002925873, -0.137102872133255,
          0.33102333545684814, 0.2463626265525818, -0.1157437115907669, -0.041662171483039856,
          0.3669610321521759, 0.1296921670436859, -0.28088587522506714, -0.430393785238266,
          0.04257943481206894, 0.171576589345932, -0.32857856154441833, 0.5513846278190613,
          -0.25331440567970276, -0.40640801191329956, -0.013963621109724045, 0.40545961260795593,
          -0.2049267441034317, -0.3826853036880493, -0.2475067675113678, 0.07442164421081543,
          -0.2192605882883072, -0.18204373121261597, -0.008841592818498611, -0.04775194078683853,
          -0.13659217953681946, -0.06112617999315262, -0.21628154814243317, 0.27137258648872375,
          -0.42782261967658997, -0.33718082308769226, 0.09466042369604111, -0.22558990120887756,
          0.5797595977783203, 0.5385050773620605, -0.24804501235485077, 0.21682968735694885,
          -0.334694504737854, 0.4656059741973877, -0.14678774774074554, 0.1566532850265503,
          -0.21536843478679657, -0.043081581592559814, -0.1627764254808426, -0.019775576889514923,
          0.1297956258058548, -0.14069795608520508, 0.2254604697227478, -0.37338531017303467,
          -0.19277021288871765, 0.10167660564184189, 0.2530202269554138, 0.2267075628042221,
          0.21250632405281067, -0.0943581834435463, -0.06396614760160446, -0.15647806227207184
        ],
        [
          0.17794980108737946, 0.026856502518057823, 0.4659150540828705, -0.4488674998283386,
          0.1652994155883789, 0.26966652274131775, -0.33867117762565613, 0.056530240923166275,
          0.11360228061676025, 0.48938119411468506, -0.10557305812835693, -0.0564938485622406,
          0.10237094759941101, -0.22491692006587982, -0.25624892115592957, 0.31196194887161255,
          0.11658360064029694, -0.37517061829566956, -0.31978681683540344, 0.11118289083242416,
          0.23399309813976288, -0.47760093212127686, 0.18930286169052124, 0.1272488534450531,
          -0.1445797085762024, -0.27917760610580444, 0.4181325137615204, 0.07738936692476273,
          0.3057412803173065, 0.5832463502883911, -0.18463420867919922, -0.29077890515327454,
          0.16730277240276337, 0.01413572859019041, 0.19676145911216736, 0.2597304880619049,
          -0.2677288353443146, 0.2874912619590759, 0.17438168823719025, 0.4131985306739807,
          0.13337071239948273, -0.04459379240870476, 0.022726649418473244, 0.14090722799301147,
          0.14370590448379517, 0.018923599272966385, 0.14341694116592407, 0.041674938052892685,
          0.46892333030700684, 0.018117785453796387, 0.45549413561820984, 0.18054504692554474,
          -0.06631281971931458, 0.08921670913696289, -0.11344308406114578, 0.23888882994651794,
          0.06297936290502548, 0.07564157247543335, 0.10176452249288559, 0.13025696575641632,
          -0.0890088900923729, 0.07987737655639648, 0.19077205657958984, -0.12272320687770844,
          -0.1353609412908554, -0.5886821150779724, 0.315211683511734, 0.35750389099121094,
          -0.09360774606466293, 0.21168696880340576, 0.07262253016233444, -0.22535152733325958,
          -0.03300118446350098, -0.0714179053902626, -0.28720226883888245, -0.22622962296009064,
          0.4176865518093109, 0.269182413816452, 0.4389897584915161, 0.20901933312416077,
          0.34873026609420776, 0.20288001000881195, 0.3014392554759979, 0.19664157927036285,
          0.5311446189880371, 0.3545169532299042, 0.25279322266578674, -0.16621007025241852,
          0.015879331156611443, -0.16079819202423096, 0.20128707587718964, -0.6235806345939636,
          0.012792506255209446, -0.1248418316245079, -0.06199087202548981, -0.10010815411806107,
          -0.09412774443626404, 0.40619826316833496, 0.29549485445022583, -0.10213158279657364,
          0.089508056640625, 0.08788415044546127, 0.5440303683280945, 0.3043370842933655,
          0.06567250192165375, 0.2007717341184616, -0.5812793374061584, -0.16678205132484436,
          0.688029408454895, 0.14526285231113434, -0.2211052030324936, -0.07052693516016006,
          -0.09674550592899323, 0.22179974615573883, 0.11722946166992188, 0.09774697571992874,
          -0.36711645126342773, 0.32144567370414734, -0.45057711005210876, 0.040229976177215576,
          0.3301173746585846, -0.015467856079339981, 0.3953090012073517, -0.3424750864505768,
          -0.09521960467100143, -0.7348748445510864, 0.1140286922454834, 0.029423262923955917
        ],
        [
          -0.502265214920044, 0.10992634296417236, 0.10008414089679718, 0.41571810841560364,
          -0.11861839145421982, -0.31394562125205994, -0.3797622323036194, 0.04596446827054024,
          0.014905979856848717, 0.250311017036438, 0.1337532103061676, 0.34269940853118896,
          0.23924435675144196, 0.17908194661140442, -0.18252958357334137, -0.3466172516345978,
          -0.09576594084501266, 0.04817967489361763, 0.16695193946361542, 0.21931351721286774,
          -0.15929308533668518, 0.03389699012041092, -0.047373898327350616, 0.1393774300813675,
          -0.11821580678224564, 0.002038185251876712, 0.227940633893013, -0.6009945273399353,
          -0.20193299651145935, -0.12127438187599182, -0.06511250138282776, 0.19461020827293396,
          -0.27339187264442444, 0.13130885362625122, -0.05158710852265358, 0.08955828100442886,
          0.01898276060819626, 0.2419239580631256, -0.12551768124103546, -0.08794078230857849,
          0.17545197904109955, -0.056098032742738724, -0.4502200782299042, 0.03692535683512688,
          0.20527607202529907, 0.30969852209091187, -0.32425615191459656, 0.21308228373527527,
          0.2887113690376282, 0.22799596190452576, -0.41532233357429504, 0.019200962036848068,
          0.07934857159852982, 0.2335841953754425, -0.05117564648389816, 0.3361353874206543,
          -0.22399212419986725, 0.47510474920272827, 0.2985769212245941, -0.06103820353746414,
          0.24529679119586945, 0.801418125629425, 0.01766510307788849, 0.2848813533782959,
          0.29714861512184143, -0.1531001776456833, 0.24174796044826508, 0.0965193510055542,
          0.05915052443742752, -0.5723757743835449, 0.20066221058368683, -0.0675056055188179,
          0.16676098108291626, -0.29801109433174133, 0.07147206366062164, -0.3759169578552246,
          0.34681436419487, 0.13910262286663055, -0.05475405603647232, -0.30595678091049194,
          -0.21722674369812012, 0.06430025398731232, -0.07821428030729294, 0.5215030312538147,
          -0.26451051235198975, -0.21954230964183807, 0.20936498045921326, 0.25760942697525024,
          0.021705474704504013, -0.3238126039505005, -0.020063813775777817, -0.1036825031042099,
          -0.031250130385160446, -0.03189454227685928, -0.17615002393722534, 0.1209123283624649,
          0.0580599419772625, 0.4444287419319153, -0.4889705777168274, 0.0390046052634716,
          -0.13313183188438416, 0.05427377671003342, 0.14566846191883087, 0.05045138671994209,
          0.7424839735031128, 0.24874645471572876, -0.003731823991984129, 0.46231597661972046,
          -0.15327994525432587, 0.28507283329963684, 0.035988565534353256, 0.09077155590057373,
          -0.02749563381075859, -0.25408294796943665, -0.06735196709632874, 0.10272575169801712,
          0.09648138284683228, -0.4894842207431793, 0.31065186858177185, 0.13662834465503693,
          -0.17641209065914154, 0.10737381875514984, 0.24110040068626404, 0.08939228951931,
          0.2609505355358124, 0.10027731209993362, 0.22748249769210815, -0.36710870265960693
        ],
        [
          0.07711280137300491, -0.6563268303871155, 0.7767806053161621, -0.6345657110214233,
          0.33421292901039124, -0.15151181817054749, -0.0694601833820343, -0.1007457748055458,
          0.27578625082969666, 0.6713759899139404, -0.41407153010368347, -0.35000330209732056,
          0.06834504008293152, -0.20007415115833282, -0.003165510483086109, 0.5204781293869019,
          0.6074705719947815, 0.07912757247686386, -0.13053490221500397, 0.2573598623275757,
          0.06770538538694382, 0.2492816001176834, 0.025540322065353394, -0.5377609133720398,
          -0.10053262859582901, 0.1472555547952652, 0.46509742736816406, 0.4347245991230011,
          0.37735456228256226, 0.7377078533172607, 0.4349628686904907, -0.24712488055229187,
          -0.047917287796735764, 0.5501055717468262, -0.17383119463920593, 0.2097676396369934,
          -0.16614609956741333, 0.2220602184534073, 0.12430677562952042, 0.02229025401175022,
          0.2438000589609146, 0.5103135704994202, -0.1890220195055008, -0.4502341151237488,
          -0.20489513874053955, 0.1410485804080963, 0.13966874778270721, -0.13803334534168243,
          0.5412015914916992, -0.34410032629966736, 0.3520009517669678, -0.21657557785511017,
          0.36451834440231323, -0.20361272990703583, -0.008446956053376198, 0.11864450573921204,
          -0.11591557413339615, 0.029515070840716362, -0.0680910274386406, 0.09243140369653702,
          0.06991365551948547, -0.4657417833805084, 0.0905156210064888, 0.04695967957377434,
          -0.12984544038772583, -0.3222351372241974, -0.13253387808799744, -0.14865589141845703,
          -0.11375762522220612, 0.39259788393974304, 0.10648422688245773, -0.5202639698982239,
          0.08951662480831146, -0.1745176464319229, -0.14697439968585968, 0.43284446001052856,
          0.3325430750846863, 0.15739502012729645, 0.015350328758358955, 0.24573343992233276,
          0.4255956709384918, 0.21732112765312195, 0.3546142578125, -0.21407997608184814,
          0.276482492685318, 0.32745710015296936, 0.22565175592899323, -0.30936360359191895,
          0.18280577659606934, -0.4042023718357086, -0.07736700773239136, -0.20540368556976318,
          0.20564806461334229, -0.33278292417526245, 0.15666963160037994, 0.30729472637176514,
          0.28940853476524353, 0.26596754789352417, -0.16399358212947845, -0.1846703439950943,
          -0.12228504568338394, 0.15082959830760956, 0.4333876073360443, -0.11083751916885376,
          -0.569671094417572, -0.09911812096834183, -0.2808462083339691, -0.5235127210617065,
          0.3484993278980255, -0.04245767369866371, -0.09371446818113327, 0.4133903384208679,
          0.041297007352113724, -0.02433851733803749, 0.2874465882778168, 0.03339870274066925,
          -0.4424813389778137, 0.055120814591646194, -0.23850996792316437, -0.06985101848840714,
          0.1947578638792038, -0.21465817093849182, 0.5316087007522583, -0.029221652075648308,
          -0.2926759421825409, 0.0356050468981266, 0.47315162420272827, 0.3869091272354126
        ],
        [
          -0.4175576865673065, 0.05702471360564232, 0.2659560739994049, 0.38170120120048523,
          -0.2883198857307434, -0.6436830163002014, -0.23110772669315338, -0.09997254610061646,
          -0.0791519358754158, 0.3544808626174927, -0.15411429107189178, 0.1897457093000412,
          0.18512743711471558, 0.5121750235557556, -0.14363840222358704, -0.20884187519550323,
          0.14697834849357605, -0.2284587025642395, 0.21339531242847443, 0.4674992263317108,
          -0.06357012689113617, -0.03216564282774925, -0.3347148597240448, 0.06962192058563232,
          -0.41674095392227173, 0.22992894053459167, 0.601119875907898, -0.73069167137146,
          0.22974753379821777, 0.274809867143631, -0.081927590072155, -0.08904734253883362,
          -0.5761411190032959, 0.18855763971805573, -0.043350424617528915, 0.2855857312679291,
          0.19800299406051636, 0.09134142845869064, -0.16430778801441193, -0.27640989422798157,
          0.5955446362495422, 0.04374408721923828, -0.3259253203868866, 0.316890150308609,
          0.304749071598053, 0.5740876793861389, -0.4112188220024109, 0.28897663950920105,
          0.2831402122974396, 0.22909952700138092, -0.7284845113754272, -0.4827457368373871,
          0.2664268910884857, 0.3215903341770172, 0.2601802945137024, 0.5309295654296875,
          0.10633087903261185, 0.4162657558917999, 0.2515067458152771, -0.11633200943470001,
          0.464205801486969, 0.6739226579666138, -0.34536221623420715, 0.4746954143047333,
          0.3529944121837616, -0.11809095740318298, 0.008932472206652164, 0.4527430236339569,
          -0.2357504814863205, -0.6631487607955933, 0.29995018243789673, -0.16304855048656464,
          0.11182515323162079, -0.6227375864982605, 0.394689679145813, -0.4316813349723816,
          0.10815046727657318, 0.24277406930923462, -0.13755598664283752, -0.10904087126255035,
          0.05593644827604294, 0.09024257957935333, 0.13994969427585602, 0.3077315390110016,
          -0.2204916626214981, -0.47607508301734924, 0.30219021439552307, 0.4083302617073059,
          0.1657271385192871, -0.5310611128807068, -0.096049964427948, -0.3442189395427704,
          0.43475690484046936, -0.02396109327673912, -0.23838330805301666, -0.06495591998100281,
          0.03915554657578468, 0.5524702668190002, -0.43721455335617065, 0.25353801250457764,
          -0.23647095263004303, 0.13766835629940033, 0.3283471465110779, 0.29041334986686707,
          0.5163261890411377, 0.09392566233873367, -0.06850598007440567, 0.16973330080509186,
          -0.3431857228279114, 0.37558451294898987, -0.007951540872454643, 0.23885443806648254,
          -0.09759248048067093, -0.3911811411380768, -0.29149574041366577, -0.08207979798316956,
          0.2553507387638092, -0.03721798583865166, 0.2799273431301117, 0.3163750171661377,
          -0.022099342197179794, 0.06598958373069763, -0.32672494649887085, 0.12735193967819214,
          0.29113122820854187, 0.19021283090114594, 0.009450729936361313, -0.35095080733299255
        ],
        [
          -0.37259459495544434, -1.0464229583740234, 0.7756801843643188, -0.5723978877067566,
          0.32314878702163696, -0.12355009466409683, 0.05318073555827141, -0.2642489969730377,
          0.5454265475273132, 0.6268206238746643, -0.5197218656539917, -0.2673700749874115,
          0.33945563435554504, 0.15559348464012146, 0.060885798186063766, 0.49481329321861267,
          0.5938457250595093, 0.11932452023029327, -0.055369291454553604, 0.3640560209751129,
          0.2761371433734894, 0.8792161345481873, 0.1150800809264183, -0.46399208903312683,
          0.0202442929148674, 0.10638152062892914, 0.30169710516929626, 0.31198060512542725,
          0.21184703707695007, 0.9734119772911072, 0.8876928687095642, -0.05674920231103897,
          0.14575332403182983, 0.8063331246376038, -0.3100966215133667, 0.23962333798408508,
          -0.1803429275751114, 0.006983618717640638, 0.132736936211586, -0.32654035091400146,
          0.12006376683712006, 0.5957697033882141, -0.2885129749774933, -0.4635653495788574,
          -0.3123449981212616, 0.21241621673107147, -0.09425058215856552, -0.26449450850486755,
          0.15317031741142273, -0.4411003589630127, 0.19362357258796692, -0.544541597366333,
          0.32784345746040344, -0.50162273645401, -0.05589352175593376, 0.16571086645126343,
          -0.4102373719215393, 0.0850447565317154, 0.1464337706565857, -0.12395471334457397,
          0.1260029524564743, -0.4640847146511078, 0.10342477262020111, 0.11180270463228226,
          -0.08034994453191757, -0.0658256933093071, -0.07329656183719635, -0.22658802568912506,
          -0.31466418504714966, 0.37572067975997925, 0.39136385917663574, -0.5228503346443176,
          0.15568239986896515, -0.19801829755306244, 0.023930126801133156, 0.5068048238754272,
          0.16543181240558624, -9.755311475601047e-5, 0.2567717730998993, 0.12079472094774246,
          0.3681811988353729, 0.2858318090438843, 0.4382404088973999, -0.37581148743629456,
          -0.19683775305747986, 0.4627027213573456, 0.10193200409412384, -0.2881707549095154,
          0.2915182113647461, -0.12917079031467438, -0.3007314205169678, 0.4934687912464142,
          0.3093714118003845, -0.3952938914299011, -0.11970514804124832, 0.29209229350090027,
          0.7931767702102661, 0.43437403440475464, -0.1015293300151825, -0.0720844492316246,
          -0.2635410726070404, 0.038767825812101364, 0.19368483126163483, -0.2828804850578308,
          -0.8825823664665222, -0.2456417828798294, -0.07292106747627258, -0.7066892385482788,
          -0.15129181742668152, 0.02598234824836254, -0.4002722501754761, 0.6103600859642029,
          0.2702314257621765, -0.2944771647453308, 0.4315750002861023, -0.24268095195293427,
          -0.11107748001813889, -0.13282142579555511, -0.1297292560338974, -0.11303666234016418,
          0.19379696249961853, -0.18756629526615143, 0.031083570793271065, -0.10320504754781723,
          -0.15620961785316467, 0.7485955357551575, 0.7863506078720093, 0.3026108741760254
        ],
        [
          -0.3936149775981903, -0.23222260177135468, -0.08024139702320099, -0.29369109869003296,
          0.33168402314186096, 0.6052915453910828, -0.036698613315820694, -0.09744144231081009,
          -0.1942976415157318, 0.09262480586767197, -0.30875834822654724, -0.16553625464439392,
          -0.04608350619673729, -0.3773016631603241, 0.14174750447273254, 0.15506137907505035,
          -0.015443220734596252, 0.28379860520362854, -0.38511642813682556, 0.30746766924858093,
          0.6274664402008057, 0.1800636202096939, -0.2361496537923813, 0.38770151138305664,
          0.20410075783729553, -0.10748618841171265, 0.03697396069765091, 0.4694077670574188,
          0.4004739820957184, -0.1517631858587265, -0.03289882093667984, 0.29566121101379395,
          -0.3235931396484375, -0.15305274724960327, 0.21571172773838043, -0.6548216342926025,
          -0.7514548301696777, 0.14525586366653442, -0.1218143105506897, 0.05452108383178711,
          -0.3286435604095459, 0.33119112253189087, 0.4041251838207245, -0.4062320291996002,
          0.17048421502113342, -0.8539089560508728, -0.32026711106300354, 0.07886750251054764,
          -0.40853506326675415, 0.14945943653583527, 0.3765987753868103, 0.11040015518665314,
          -0.49733203649520874, 0.10723572224378586, 0.16261082887649536, -0.6258381009101868,
          0.389817476272583, 0.1133536845445633, -0.7014553546905518, -0.6207973957061768,
          -0.6489014625549316, -0.013861865736544132, -0.3286336362361908, 0.01759578473865986,
          0.06513772904872894, 0.12298009544610977, -0.13814300298690796, 0.3792837858200073,
          0.3814166188240051, -0.05689637362957001, -0.18446554243564606, -0.1593373864889145,
          -0.5615488290786743, 0.28551414608955383, -0.7046201229095459, -0.1966802328824997,
          -0.6736010909080505, 0.3601393699645996, 0.1861487776041031, 0.14243139326572418,
          -0.021845737472176552, 0.2180338054895401, -0.3270185887813568, -0.0902179479598999,
          -0.574719250202179, 0.33721014857292175, -0.8071679472923279, 0.08275240659713745,
          -0.09626628458499908, 0.8425575494766235, 0.6479930281639099, 0.11307031661272049,
          -0.440506249666214, 0.552901029586792, -0.41330456733703613, -0.19506391882896423,
          -0.3882991671562195, -0.1610099971294403, 0.1383821964263916, 0.3540870249271393,
          -0.5030614137649536, -0.6454595923423767, -0.11858312040567398, 0.4397273361682892,
          -0.17991231381893158, 0.009766236878931522, -0.373163104057312, -0.3186396658420563,
          -0.22151707112789154, -0.8056460022926331, 0.541059672832489, -0.14995408058166504,
          0.5603574514389038, 0.445212185382843, 0.011356537230312824, -0.03823601081967354,
          -0.047274842858314514, -0.3549540042877197, -0.35941728949546814, 0.4744775593280792,
          -0.43905559182167053, 0.1250181943178177, -0.1935807317495346, -0.09820853918790817,
          -0.1554822027683258, 0.05874834954738617, -0.2757008671760559, -0.6318781971931458
        ],
        [
          0.14928025007247925, 0.5416362881660461, 0.8024651408195496, 0.5085145831108093,
          -0.21368296444416046, 0.06072045862674713, -0.14934028685092926, -0.16109268367290497,
          -0.247587651014328, 0.40167108178138733, 0.2699277698993683, 0.5186839699745178,
          0.22126320004463196, -0.04676187038421631, -0.27889153361320496, 0.18315011262893677,
          0.39080485701560974, 0.15852637588977814, 0.1299303025007248, 0.049971554428339005,
          -0.028748925775289536, -0.6133390069007874, 0.18709486722946167, -0.1580967754125595,
          0.14853669703006744, -0.15676288306713104, 0.32499825954437256, 0.03152284771203995,
          0.09327885508537292, 0.5118919610977173, -0.15579725801944733, -0.06555281579494476,
          0.38759294152259827, -0.27776363492012024, 0.24528653919696808, -0.17669500410556793,
          0.07824799418449402, -0.1956241875886917, -0.19525307416915894, 0.37448325753211975,
          0.00357435317710042, -0.07429465651512146, 0.4727257490158081, 0.2773143947124481,
          -0.46148356795310974, -0.24110519886016846, 0.34522297978401184, 0.2265489101409912,
          0.669871985912323, 0.4316636323928833, 0.4798940420150757, 0.07002895325422287,
          0.0950780138373375, 0.07858195900917053, -0.03735065460205078, -0.11073344945907593,
          -0.13429459929466248, 0.3545755445957184, 0.5303549766540527, 0.02934528887271881,
          0.13093936443328857, 0.7122975587844849, 0.30682313442230225, 0.19065172970294952,
          0.22799010574817657, -0.22148124873638153, 0.19817957282066345, 0.34752157330513,
          0.11576113849878311, 0.4765552282333374, -0.13398590683937073, 0.18759939074516296,
          -0.2293839305639267, -0.5166467428207397, -0.1815619170665741, 0.33137550950050354,
          0.09312372654676437, 0.4534072279930115, -0.01623578742146492, 0.2684148848056793,
          0.17970041930675507, 0.3424730598926544, 0.32701942324638367, 0.3628263771533966,
          -0.001221975078806281, -0.03764200955629349, -0.15077722072601318, 0.442104697227478,
          -0.18610090017318726, -0.055407535284757614, -0.13675133883953094, -0.4478577971458435,
          -0.07738310098648071, 0.2649579346179962, 0.14428095519542694, 0.09608859568834305,
          -0.08456028997898102, 0.24481046199798584, -0.4155306816101074, 0.11512301862239838,
          0.2578435242176056, 0.31846800446510315, -0.30630651116371155, 0.021796688437461853,
          0.6546974778175354, 0.0025203018449246883, -0.4495754539966583, 0.5287827253341675,
          0.31834664940834045, 0.049154844135046005, 0.018419338390231133, -0.26969873905181885,
          -0.07510757446289062, -0.1254889816045761, 0.40268322825431824, 0.006534994579851627,
          -0.10429005324840546, 0.01613367535173893, -0.35972344875335693, 0.29556089639663696,
          0.33279654383659363, 0.46713632345199585, 0.04337643086910248, 0.3218868672847748,
          -0.06896878033876419, -0.5697503089904785, 0.1134970635175705, 0.0015369541943073273
        ],
        [
          0.1452469676733017, -0.1829495131969452, 0.1657673418521881, -0.0845317393541336,
          0.25980085134506226, 0.2698030173778534, -0.14742626249790192, 0.3579467833042145,
          -0.3691476881504059, 0.07623493671417236, -0.4154796004295349, -0.31539085507392883,
          0.2647010087966919, -0.09828788787126541, 0.07075082510709763, 0.05013168230652809,
          -0.027201833203434944, 0.3145943284034729, 0.28297314047813416, -0.2972196340560913,
          0.12420717626810074, 0.08969473838806152, 0.13492608070373535, -0.20737004280090332,
          0.31332817673683167, -0.00975735578685999, -0.25300779938697815, 0.4450989067554474,
          -0.07876117527484894, -0.22806832194328308, -0.36506569385528564, -0.017090829089283943,
          0.050637342035770416, -0.14787355065345764, 0.007537460420280695, 0.2785121500492096,
          0.02301260456442833, 0.14347296953201294, 0.4163717031478882, 0.07803411781787872,
          -0.27332642674446106, -0.2669006586074829, 0.3004721999168396, -0.21073147654533386,
          -0.19611695408821106, -0.3237413763999939, 0.07312896847724915, 0.0936586931347847,
          0.04407605901360512, -0.15255866944789886, 0.2518983483314514, 0.012568330392241478,
          -0.2920043468475342, -0.20572488009929657, -0.04791264608502388, -0.053602688014507294,
          0.027116684243083, -0.004746919963508844, -0.14810462296009064, 0.30007705092430115,
          0.11589621752500534, -0.03141174837946892, -0.46127811074256897, -0.21210695803165436,
          -0.27617037296295166, -0.29772868752479553, -0.11082328855991364, -0.16027909517288208,
          -0.07479441910982132, -0.07672404497861862, -0.08036354929208755, -0.16203375160694122,
          -0.0985623374581337, -0.17821411788463593, -0.14473611116409302, 0.07783382385969162,
          0.318032443523407, -0.057701099663972855, 0.26371267437934875, 0.22162467241287231,
          0.1772717833518982, 0.028463732451200485, 0.45035383105278015, 0.022366009652614594,
          0.1806500256061554, 0.19504523277282715, -0.21645744144916534, 0.31863337755203247,
          -0.0028220335952937603, 0.152442067861557, -0.0013275484088808298, -0.004502975847572088,
          -0.07912224531173706, -0.13389526307582855, 0.17241640388965607, 0.03561970591545105,
          -0.015044200234115124, -0.0737823098897934, 0.11786536872386932, -0.0757664293050766,
          0.07987558841705322, -0.025122307240962982, -0.1244482472538948, -0.01535708550363779,
          -0.06515467166900635, -0.06601531058549881, -0.21430158615112305, 0.07781622558832169,
          -0.05086490884423256, -0.31934550404548645, -0.029730573296546936, -0.0801675021648407,
          -0.07568883150815964, -0.02611875906586647, -0.5319153070449829, -0.12900681793689728,
          -0.2911292016506195, 0.03482284024357796, 0.06263303011655807, -0.039088502526283264,
          -0.1448034644126892, 0.2461661696434021, -0.08134808391332626, 0.24071237444877625,
          0.0743878185749054, 0.2781294584274292, -0.5159769654273987, -0.0560997799038887
        ],
        [
          0.07903790473937988, 0.354289710521698, 0.6342936754226685, 0.13844142854213715,
          0.21137750148773193, 0.10885260999202728, -0.14986826479434967, 0.15581350028514862,
          0.05470572039484978, 0.21938082575798035, 0.13222800195217133, 0.4698430895805359,
          0.1080312728881836, -0.14082156121730804, -0.013258018530905247, 0.4543365240097046,
          0.17384053766727448, -0.11485084146261215, 0.21872512996196747, -0.06659134477376938,
          -0.16220751404762268, -0.008995763026177883, -0.15140941739082336, -0.2499057650566101,
          0.07756339758634567, -0.16891983151435852, 0.1055261492729187, -0.024940811097621918,
          -0.2171417623758316, 0.09977708011865616, -0.0732898935675621, 0.12356739491224289,
          -0.015058288350701332, -0.03176701441407204, -0.23092524707317352, -0.015036833472549915,
          0.0447777695953846, 0.003329247236251831, 0.006643715314567089, -0.0909934937953949,
          -0.008626284077763557, 0.19192323088645935, 0.0340467169880867, 0.04834793135523796,
          -0.23380839824676514, 0.33832216262817383, -0.04412252828478813, -0.305382639169693,
          0.38305261731147766, -0.15476998686790466, 0.18951593339443207, 0.022036565467715263,
          0.16746504604816437, 0.059457261115312576, 0.09763133525848389, 0.4455384612083435,
          -0.3792269229888916, 0.1664997637271881, 0.020697368308901787, 0.2546961009502411,
          -0.06628676503896713, 0.4814618229866028, -0.12446039915084839, 0.15643395483493805,
          0.11205010116100311, 0.2449161261320114, -0.40613076090812683, -0.12128468602895737,
          -0.09088657796382904, 0.07528644055128098, -0.03899533674120903, 0.10199502110481262,
          0.02362125739455223, -0.12956885993480682, 0.23024089634418488, -0.00911440048366785,
          0.09931114315986633, -0.030378954485058784, 0.07101855427026749, -0.37467387318611145,
          0.2621590197086334, -0.030623478814959526, 0.06691847741603851, 0.542991578578949,
          -0.21499963104724884, -0.0702173188328743, 0.04018206521868706, 0.16690637171268463,
          -0.13154363632202148, 0.23199217021465302, -0.39395275712013245, 0.012964260764420033,
          0.08001118153333664, 0.07702779024839401, 0.28579485416412354, 0.090388223528862,
          0.09873642772436142, 0.2206667959690094, -0.12900590896606445, 0.03410808742046356,
          0.20476065576076508, 0.037714820355176926, -0.25281691551208496, 0.05772457644343376,
          0.36874285340309143, 0.01612178049981594, 0.006075706798583269, 0.14260071516036987,
          -0.24149800837039948, 0.14767247438430786, 0.13311555981636047, -0.2545950710773468,
          -0.1124943196773529, 0.0679769217967987, 0.09606431424617767, -0.06772878766059875,
          -0.31799080967903137, -0.17866697907447815, 0.09935308247804642, 0.11135703325271606,
          -0.025759965181350708, 0.3510796129703522, -0.06154784932732582, 0.3850269913673401,
          -0.13364505767822266, 0.013649187982082367, -0.019845223054289818, -0.07863936573266983
        ],
        [
          0.06486136466264725, -0.09361864626407623, 0.23741179704666138, -0.04374997317790985,
          0.26140546798706055, 0.18029437959194183, 0.11936775594949722, 0.31544071435928345,
          -0.32821568846702576, 0.22963203489780426, -0.47944778203964233, -0.28186851739883423,
          0.38211336731910706, 0.11956827342510223, 0.3420258164405823, 0.39874428510665894,
          -0.006158784963190556, 0.2396474927663803, 0.3487531244754791, -0.6002744436264038,
          -0.006463226862251759, -0.33868706226348877, 0.3961104452610016, -0.3883759379386902,
          0.1522059589624405, -0.10106899589300156, -0.24680796265602112, 0.24871590733528137,
          -0.021314624696969986, -0.3284279406070709, -0.1106622964143753, -0.18331275880336761,
          0.1822960078716278, -0.00833074189722538, -0.17841742932796478, 0.2728089988231659,
          -0.0003131992416456342, -0.03595304116606712, 0.6340709924697876, 0.02845066785812378,
          -0.4987183213233948, -0.4546750783920288, 0.341960072517395, -0.28302454948425293,
          -0.13579411804676056, 0.20319174230098724, 0.0890255942940712, -0.3848777115345001,
          -0.01905113272368908, -0.08350587636232376, 0.23018644750118256, 0.3183251619338989,
          -0.07503700256347656, 0.08723075687885284, -0.15739765763282776, 0.11844596266746521,
          -0.22208309173583984, -0.4279836118221283, -0.1855572909116745, 0.587367594242096,
          0.11438631266355515, 0.022025521844625473, -0.21081793308258057, -0.3293505609035492,
          -0.31683647632598877, -0.04149209335446358, -0.00501942727714777, -0.3126521706581116,
          -0.38610172271728516, 0.2669321298599243, -0.2758451998233795, -0.20792056620121002,
          0.14483597874641418, -0.16324998438358307, 0.07377404719591141, 0.25753292441368103,
          0.08281709253787994, -0.4750303328037262, 0.24151387810707092, 0.20817910134792328,
          -0.04186903312802315, -0.13416679203510284, 0.331667423248291, -0.02521670237183571,
          0.23509246110916138, 0.33127161860466003, 0.07334375381469727, -0.12487991899251938,
          -0.04720395430922508, 0.4499976634979248, -0.15399867296218872, 0.0989573523402214,
          0.11704141646623611, -0.1688152402639389, 0.31080642342567444, 0.049320612102746964,
          0.07525087147951126, -0.14119569957256317, 0.27271029353141785, -0.4435392916202545,
          0.30150723457336426, 0.1962442696094513, -0.4376980662345886, -0.18054696917533875,
          -0.23251330852508545, -0.5319496989250183, 0.25689682364463806, 0.05040375515818596,
          -0.27546095848083496, -0.02147425338625908, -0.12236827611923218, 0.0572265163064003,
          0.01632249541580677, 0.27731630206108093, -0.237386092543602, -0.03184409812092781,
          0.07570560276508331, 0.4850420653820038, 0.01034072507172823, -0.27843019366264343,
          0.10930238664150238, -0.12081418931484222, -0.22102339565753937, 0.14743179082870483,
          -0.08625155687332153, 0.031346023082733154, -0.19334901869297028, 0.10707563161849976
        ],
        [
          -0.2779558002948761, 0.12713228166103363, 0.4208930432796478, 0.355676531791687,
          0.530566394329071, -0.09262815117835999, 0.29024988412857056, 0.5836248397827148,
          -0.08807282894849777, 0.011699838563799858, -0.09728439152240753, 0.1870664656162262,
          0.01846519485116005, -0.35826414823532104, 0.39391911029815674, -0.17662833631038666,
          0.01716211438179016, -0.0642051175236702, 0.06049458310008049, 0.14616289734840393,
          0.2577306032180786, 0.19587023556232452, -0.15190641582012177, -0.01859036274254322,
          0.08405143022537231, -0.2190815955400467, 0.0931641161441803, 0.22014130651950836,
          -0.18277816474437714, -0.3376511335372925, 0.05010067671537399, 0.058211807161569595,
          -0.3224382698535919, -0.1576858013868332, -0.23778045177459717, 0.11373209208250046,
          -0.41428452730178833, 0.09898446500301361, -0.08177352696657181, -0.3465946912765503,
          0.1598595678806305, 0.23109163343906403, -0.18955370783805847, -0.21796353161334991,
          0.15270081162452698, 0.21371930837631226, -0.430558979511261, -0.1309666633605957,
          0.21427662670612335, -0.17086847126483917, 0.05223037675023079, -0.19902339577674866,
          0.26627427339553833, -0.02627921663224697, 0.41545623540878296, 0.14216215908527374,
          -0.0523228645324707, -0.20217165350914001, 0.013096156530082226, 0.5040322542190552,
          -0.25617945194244385, 0.26264095306396484, -0.15895505249500275, -0.13080008327960968,
          -0.06892389804124832, 0.35862278938293457, 0.18700860440731049, -0.28338825702667236,
          -0.24497556686401367, -0.18291504681110382, -0.029329638928174973, -0.30259016156196594,
          -0.0018408261239528656, 0.2586287558078766, 0.3025292158126831, -0.01116388849914074,
          0.23932093381881714, -0.35765916109085083, 0.036736615002155304, -0.4652402400970459,
          0.17858073115348816, -0.35425281524658203, 0.019993193447589874, -0.04403119161725044,
          -0.3831612765789032, 0.14951744675636292, 0.38812175393104553, -0.05224068462848663,
          -0.211919903755188, 0.27554401755332947, -0.19594566524028778, 0.06253336369991302,
          0.2705942392349243, -0.08649647980928421, -0.0308261439204216, 0.2567088305950165,
          -0.05116557329893112, -0.38270196318626404, -0.05406641960144043, 0.02896580845117569,
          0.20696045458316803, -0.3172565698623657, 0.11803510040044785, 0.03871764987707138,
          0.5037326812744141, 0.12543487548828125, 0.032267965376377106, 0.3694041967391968,
          -0.25746482610702515, 0.06513926386833191, -0.2811093330383301, -0.010595712810754776,
          -0.10118632018566132, 0.3220330774784088, -0.09611925482749939, 0.17960906028747559,
          0.2220964878797531, -0.00364330830052495, 0.5282418727874756, -0.11016102135181427,
          -0.44110366702079773, 0.043578166514635086, -0.21257375180721283, -0.11306622624397278,
          0.41446828842163086, 0.33280614018440247, -0.2264690101146698, -0.13334164023399353
        ],
        [
          0.5823218822479248, -0.34753820300102234, 0.14921368658542633, -0.26543572545051575,
          0.3560774028301239, 0.2542569041252136, 0.6925779581069946, 0.44385993480682373,
          -0.38686123490333557, 0.05958691984415054, -0.44566914439201355, -0.35827943682670593,
          0.27808281779289246, 0.26053911447525024, 0.6062865257263184, 0.6839542388916016,
          -0.3429851233959198, 0.06932421028614044, 0.09756461530923843, -0.5550376772880554,
          -0.2750611901283264, -0.5356950759887695, 0.5011915564537048, -0.38196659088134766,
          0.14685726165771484, -0.053485263139009476, -0.47650644183158875, 0.7111085057258606,
          0.05855783820152283, -0.5658267140388489, -0.3238883912563324, -0.4604978561401367,
          0.0742718055844307, -0.23850087821483612, -0.486833393573761, 0.3631563186645508,
          0.37346217036247253, -0.3559984564781189, 0.7027384042739868, -0.021818283945322037,
          -0.288695365190506, -0.37018465995788574, 0.6513636112213135, -0.25465720891952515,
          -0.3135777711868286, 0.24303825199604034, 0.34639042615890503, -0.40348196029663086,
          0.1425635665655136, 0.19334232807159424, 0.36266028881073, 0.2043655812740326,
          -0.18773841857910156, 0.3388447165489197, -0.2219766229391098, 0.17458616197109222,
          -0.011147309094667435, -0.8972862958908081, -0.1513746827840805, 0.6477378606796265,
          0.20905469357967377, -0.18307599425315857, 0.13231810927391052, -0.3008497357368469,
          -0.39314982295036316, 0.4051530361175537, -0.05019724741578102, -0.7255038619041443,
          -0.5971218347549438, 0.4968325197696686, -0.21534384787082672, -0.007786691188812256,
          0.6950478553771973, -0.08893072605133057, 0.513659656047821, 0.41222989559173584,
          -0.026667388156056404, -0.8063035607337952, 0.35856518149375916, 0.49915605783462524,
          -0.01532102469354868, -0.18644779920578003, 0.13725347816944122, 0.17189179360866547,
          0.070384681224823, 0.44651517271995544, 0.3916392922401428, -0.30249354243278503,
          -0.2693205773830414, 0.6345757842063904, -0.0891883596777916, -0.24790550768375397,
          0.024243023246526718, -0.15487319231033325, 0.07415081560611725, 0.2460789978504181,
          0.19390550255775452, -0.2364327311515808, 0.12262188643217087, -0.6875817179679871,
          0.1589360386133194, 0.4002548158168793, -0.1504620462656021, 0.056578636169433594,
          -0.21062082052230835, -0.8639591932296753, 0.5284035801887512, -0.12056554853916168,
          -0.2949392795562744, 0.25217026472091675, -0.19508607685565948, 0.34057602286338806,
          0.09562385082244873, 0.3607328236103058, -0.012798097915947437, 0.21059966087341309,
          0.003959788475185633, 0.7284650206565857, 0.19842849671840668, -0.06137640029191971,
          -0.019527042284607887, -0.2627491056919098, -0.11133573204278946, 0.17682725191116333,
          0.11552339047193527, -0.3992933928966522, -0.22236566245555878, 0.47486600279808044
        ],
        [
          -0.5156185626983643, 0.23691050708293915, 0.22237402200698853, 0.31789451837539673,
          0.8955637216567993, 0.2062808722257614, 0.7778562307357788, 1.0364031791687012,
          -0.12523102760314941, -0.036731310188770294, -0.21523231267929077, 0.4008209705352783,
          -0.08277866989374161, -0.34936732053756714, 0.47978445887565613, -0.7305250763893127,
          -0.08240023255348206, 0.2604394257068634, -0.31245648860931396, 0.11447752267122269,
          0.2751622796058655, 0.45217281579971313, -0.4438380002975464, 0.08953756839036942,
          0.14013917744159698, -0.0768071636557579, -0.18711307644844055, 0.2657501697540283,
          -0.2930251359939575, -0.4030076861381531, -0.11744362115859985, -0.041057586669921875,
          -0.2957523763179779, 0.1801028847694397, -0.36336618661880493, 0.1306421011686325,
          -0.7073310017585754, 0.08498413860797882, 0.14384734630584717, -0.279619038105011,
          -0.05054982751607895, -0.103636734187603, -0.29717105627059937, -0.22932970523834229,
          0.2792476713657379, 0.2087000459432602, -0.6361436247825623, -0.0720307007431984,
          0.19065146148204803, -0.16994492709636688, -0.043545469641685486, 0.19068126380443573,
          0.08351162821054459, -0.2167966365814209, 0.1968943178653717, 0.10563201457262039,
          0.45140859484672546, -0.10314308106899261, -0.1094101071357727, 0.662078320980072,
          -0.5944892168045044, -0.0031866906210780144, -0.5221192836761475, -0.10483289510011673,
          -0.44567054510116577, 0.06308296322822571, 0.5591328740119934, -0.6699276566505432,
          -0.20713143050670624, -0.26505354046821594, 0.09395156055688858, -0.3537503480911255,
          0.02410287968814373, 0.2339852750301361, 0.2665996849536896, 0.5026124715805054,
          0.12311691045761108, -0.4355793595314026, -0.183035209774971, -0.3158484101295471,
          0.2952943444252014, -0.5233767032623291, 0.04619523137807846, -0.3482050597667694,
          -0.39433997869491577, -0.006840674672275782, 0.5237206220626831, -0.2435448169708252,
          -0.4021579921245575, 0.21010081470012665, 0.401385635137558, 0.19820594787597656,
          0.7872732281684875, -0.22104500234127045, -0.05831237882375717, 0.3117779493331909,
          -0.04407379776239395, -0.6199586987495422, 0.3325130343437195, -0.43375682830810547,
          0.06763021647930145, -0.7439640164375305, 0.5383720993995667, -0.05216594785451889,
          0.4925655722618103, -0.03350043296813965, -0.04223336651921272, 0.22637659311294556,
          0.0628330186009407, 0.1245824322104454, -0.37340351939201355, 0.39613789319992065,
          -0.01530348788946867, 0.2781829833984375, -0.34418201446533203, 0.061344511806964874,
          0.6158787608146667, 0.4597521126270294, 0.7712188363075256, -0.06171669811010361,
          -0.7700974941253662, -0.02692864090204239, -0.5647373199462891, 0.020649747923016548,
          0.555004894733429, 0.21284164488315582, -0.6180276870727539, 0.04431653395295143
        ],
        [
          -0.26475176215171814, -0.22581151127815247, -0.25036460161209106, -0.15892986953258514,
          0.29639047384262085, 0.30429449677467346, -0.5181537866592407, -0.39184513688087463,
          -0.2504698932170868, -0.14501412212848663, -0.20154593884944916, -0.17061997950077057,
          -0.1333225518465042, -0.43349266052246094, -0.19272664189338684, 0.053823091089725494,
          -0.29658809304237366, 0.0872681736946106, -0.3278598487377167, 0.05189869552850723,
          0.6257098913192749, 0.07121047377586365, -0.3373440206050873, 0.2507774531841278,
          0.06971777975559235, -0.3869003653526306, 0.11476284265518188, 0.2963975965976715,
          0.48063790798187256, 0.009459804743528366, -0.14204978942871094, 0.1824532449245453,
          -0.18906286358833313, -0.09633320569992065, 0.22892558574676514, -0.6798298954963684,
          -0.49264803528785706, 0.00453005637973547, -0.2363562136888504, 0.15796901285648346,
          0.12097378075122833, 0.11312180757522583, 0.12053542584180832, -0.2929971516132355,
          0.08873916417360306, -0.6758842468261719, -0.7129839062690735, -0.2211107760667801,
          -0.7512548565864563, 0.08996128290891647, 0.21388931572437286, 0.047778889536857605,
          -0.5937525033950806, 0.3571734130382538, 0.20643359422683716, -0.48437029123306274,
          0.6055236458778381, 0.3590322732925415, -0.6688072085380554, -0.5957835912704468,
          -0.6291069984436035, 0.04271962121129036, -0.3575811982154846, 0.34517282247543335,
          0.3385699689388275, 0.301522821187973, -0.1609928160905838, 0.17687734961509705,
          0.20047703385353088, -0.2145528793334961, 0.1359691470861435, -0.3287912905216217,
          -0.3709360659122467, -0.0603204220533371, -0.776949942111969, -0.5706056356430054,
          -0.6347832083702087, 0.4844973385334015, 0.22973434627056122, 0.2482568770647049,
          0.14733494818210602, -0.2897532880306244, -0.10496016591787338, -0.3279372751712799,
          -0.4118117392063141, 0.25531136989593506, -0.9289140105247498, 0.20595040917396545,
          0.04544293135404587, 0.8595098257064819, 0.6270750761032104, 0.00405198335647583,
          -0.48290538787841797, 0.4532143473625183, -0.23834921419620514, -0.5018519163131714,
          -0.4879269003868103, -0.07150556147098541, -0.08563176542520523, 0.5309796333312988,
          -0.4384627044200897, -0.44549164175987244, 0.07299213856458664, 0.8497169017791748,
          -0.03309982642531395, 0.2525475323200226, -0.5692437291145325, -0.28436070680618286,
          0.03419320657849312, -0.6242489814758301, 0.24033363163471222, 0.0987364798784256,
          0.6488856673240662, 0.41641685366630554, -0.08833476901054382, 0.24919380247592926,
          -0.06061621755361557, -0.5510934591293335, -0.5708043575286865, 0.4477587342262268,
          -0.3828255236148834, 0.2971045672893524, 0.1888386607170105, 0.3272286355495453,
          -0.3550344407558441, -0.19206079840660095, -0.36251914501190186, -0.7031196355819702
        ],
        [
          0.11084768921136856, 0.6557040810585022, 0.22927908599376678, 0.34722021222114563,
          -0.284988671541214, 0.25252220034599304, -0.32779461145401, -0.21086110174655914,
          -0.07574311643838882, 0.07788163423538208, 0.5186286568641663, 0.8282861113548279,
          0.33405137062072754, 0.10599762201309204, -0.11419153213500977, 0.4068109095096588,
          0.5084940791130066, 0.11869004368782043, 0.2948068082332611, 0.03856021165847778,
          -0.09896557778120041, -0.39914703369140625, 0.2929745614528656, -0.13227353990077972,
          0.08737315237522125, 0.011259600520133972, 0.3497069776058197, -0.0318114273250103,
          0.001834088354371488, 0.39941486716270447, -0.03561706840991974, 0.031346652656793594,
          0.5314478874206543, -0.569105327129364, 0.1925096958875656, -0.14053621888160706,
          0.05591478943824768, -0.22613371908664703, -0.127374529838562, 0.34085264801979065,
          -0.32874494791030884, 0.14433380961418152, 0.3452357351779938, 0.06672164052724838,
          -0.2826417088508606, -0.2359098643064499, 0.494770884513855, 0.46764811873435974,
          0.20420725643634796, 0.0849275290966034, 0.11539509892463684, 0.2526966631412506,
          0.2669953405857086, -0.07351227104663849, -0.09279593080282211, -0.16863326728343964,
          -0.3475857079029083, 0.2638102173805237, 0.37566113471984863, -0.3377014994621277,
          0.04456525668501854, 0.42727306485176086, 0.5416971445083618, 0.24342969059944153,
          -0.07549873739480972, 0.06333363056182861, -0.03460898995399475, 0.04209372028708458,
          0.10445811599493027, 0.21837590634822845, -0.1948092132806778, 0.6199060678482056,
          -0.24586454033851624, -0.07819931209087372, -0.1992414891719818, 0.11839152872562408,
          0.04497214034199715, 0.18667517602443695, -0.09388863295316696, 0.21984373033046722,
          0.13882635533809662, 0.3100075423717499, -0.09735174477100372, -0.006549028214067221,
          -0.10808639973402023, 0.2719837725162506, -0.29643532633781433, 0.6004061698913574,
          -0.049355145543813705, 0.28823527693748474, -0.20884276926517487, -0.37560519576072693,
          0.1233988106250763, 0.3395301103591919, 0.21685613691806793, 0.25102418661117554,
          -0.25796592235565186, 0.05952257290482521, -0.3556259870529175, 0.015253756195306778,
          -0.025976918637752533, 0.1503509134054184, -0.4477561116218567, 0.07253006100654602,
          0.769180417060852, -0.027622001245617867, -0.17168016731739044, 0.6449034810066223,
          0.16603879630565643, 0.035757146775722504, 0.09479225426912308, -0.3932282626628876,
          0.23356011509895325, -0.16566748917102814, 0.3687339425086975, -0.03170904517173767,
          -0.13686931133270264, -0.24348893761634827, -0.3327610492706299, 0.10598593950271606,
          0.14300797879695892, 0.5970001220703125, -0.17090532183647156, 0.13751351833343506,
          -0.1513567566871643, -0.3646593391895294, 0.3124701976776123, 0.1812257319688797
        ],
        [
          0.04452540725469589, 0.04065079987049103, 0.09444550424814224, 0.23674950003623962,
          0.030808523297309875, 0.17133669555187225, -0.24736109375953674, 0.24313759803771973,
          0.2251589447259903, -0.07008364796638489, 0.08924475312232971, 0.055506668984889984,
          0.2408476173877716, -0.26973918080329895, -0.45176613330841064, -0.016216261312365532,
          -0.0013596912613138556, 0.4952491223812103, 0.060917384922504425, 0.13091714680194855,
          -0.12188958376646042, 0.1335929036140442, -0.1055680513381958, 0.27621275186538696,
          0.14244845509529114, -0.16714408993721008, 0.07386265695095062, 0.02842305228114128,
          -0.009507166221737862, -0.18295961618423462, -0.18482694029808044, -0.25275588035583496,
          -0.18500566482543945, 0.024703919887542725, 0.04540221020579338, -0.3685649335384369,
          -0.14481250941753387, -0.1832021027803421, -0.13550296425819397, 0.00030481527210213244,
          -0.23746125400066376, -0.13545070588588715, 0.07084812968969345, -0.04108995199203491,
          0.07149147987365723, -0.2544628977775574, 0.19451719522476196, 0.24201305210590363,
          0.018062572926282883, -0.33942508697509766, 0.2051093876361847, 0.21964353322982788,
          -0.13804666697978973, -0.3316625654697418, -0.09686461836099625, -0.12458667904138565,
          0.3604767322540283, 0.40450769662857056, -0.06648856401443481, -0.06420500576496124,
          -0.0002112834044964984, 0.04578714817762375, 0.09998802840709686, -0.042285844683647156,
          -0.16756275296211243, -0.08076373487710953, 0.26473113894462585, 0.13289472460746765,
          0.16980670392513275, -0.11930646747350693, 0.22660021483898163, -0.09399449825286865,
          -0.08204928040504456, -0.05791940912604332, -0.17203930020332336, 0.09317182004451752,
          0.1782214343547821, 0.2250027358531952, 0.2326090782880783, 0.37347137928009033,
          0.04591041058301926, 0.10374190658330917, 0.35184088349342346, -0.4597780704498291,
          0.3028278052806854, -0.04193124920129776, -0.272292822599411, 0.11807437241077423,
          0.018276523798704147, -0.012342890724539757, 0.3930286467075348, -0.02028028666973114,
          -0.16748975217342377, 0.2694138288497925, 0.09794024378061295, -0.14950670301914215,
          0.05722682550549507, 0.029350997880101204, 0.13912570476531982, -0.1537160724401474,
          0.13481493294239044, 0.24963046610355377, 0.24375680088996887, -0.19559544324874878,
          0.03221115842461586, 0.2867282032966614, -0.3376443088054657, 0.05314192920923233,
          0.43011409044265747, -0.2770070731639862, 0.016168685629963875, 0.07605341821908951,
          -0.31648218631744385, -0.16313743591308594, -0.08832892030477524, -0.1264645904302597,
          0.19604544341564178, 0.2745448648929596, -0.11248152703046799, 0.15183044970035553,
          0.23990203440189362, 0.40913641452789307, 0.11625956743955612, 0.011045018211007118,
          -0.22086220979690552, -0.31765231490135193, 0.11181355267763138, -0.18347963690757751
        ],
        [
          0.6674635410308838, 0.09117967635393143, 0.07206212729215622, -0.0025426691863685846,
          -0.06569485366344452, -0.1386147290468216, -0.3983694314956665, -0.16749677062034607,
          0.15123383700847626, -0.04536961764097214, -0.0033954496029764414, 0.6303279995918274,
          0.3327208459377289, 0.6016619801521301, -0.5103755593299866, 0.08661912381649017,
          -0.020775826647877693, 0.1141318827867508, 0.0996793732047081, -0.4261738955974579,
          -0.8027216792106628, -0.12603721022605896, 0.5603280663490295, 0.05928483605384827,
          0.17960260808467865, 0.16666200757026672, 0.1146867647767067, -0.0037617934867739677,
          -0.09290140867233276, 0.061003800481557846, 0.11561829596757889, 0.37979021668434143,
          -0.08027239143848419, 0.2129909247159958, 0.19933757185935974, -0.31553950905799866,
          0.8827358484268188, 0.015496148727834225, -0.040629252791404724, -0.12887924909591675,
          0.5346564650535583, -0.040684301406145096, 0.12131910771131516, 0.561186671257019,
          -0.03996581584215164, -0.21646487712860107, 0.04194973409175873, -0.18387365341186523,
          0.07203912734985352, 0.34363114833831787, 0.1767009198665619, 0.4279904365539551,
          0.07092203199863434, -0.08621548861265182, 0.10673893243074417, 0.05243207886815071,
          0.22673632204532623, -0.1563423126935959, 0.21586565673351288, 0.10628494620323181,
          0.3731929063796997, 0.14897504448890686, -0.13969670236110687, 0.06519904732704163,
          0.5425370335578918, -0.1307191550731659, -0.272477388381958, 0.40848690271377563,
          0.11253102123737335, 0.08527079224586487, -0.5509042739868164, 0.36807337403297424,
          0.1388521045446396, -0.270725280046463, -0.09838667511940002, -0.24424363672733307,
          0.0030518805142492056, 0.3448885381221771, -0.2723839282989502, 0.29850098490715027,
          -0.12296117842197418, -0.016634680330753326, -0.31664738059043884, -0.24748671054840088,
          0.16865968704223633, -0.18794098496437073, -0.18649697303771973, -0.01668057031929493,
          0.2215450406074524, -0.14556936919689178, 0.0874406173825264, 0.0944698378443718,
          -0.19031909108161926, -0.045686207711696625, 0.014864099211990833, -0.20594684779644012,
          0.5802261233329773, 0.626842737197876, 0.24713653326034546, 0.5063894987106323,
          0.051784828305244446, 0.24606771767139435, -0.23060914874076843, -0.06461120396852493,
          0.18096229434013367, 0.0461115688085556, 0.5078955888748169, -0.05607583373785019,
          -0.31685933470726013, -0.0378657728433609, -0.18645329773426056, 0.28054875135421753,
          -0.006304890848696232, -0.14070899784564972, 0.1684352457523346, 0.26032721996307373,
          -0.3448682129383087, -0.010463081300258636, -0.4017535448074341, -0.47906503081321716,
          -0.030640609562397003, 0.08315017074346542, 0.4910287857055664, 0.2932834327220917,
          -0.3814923167228699, 0.05290202796459198, -0.19097255170345306, 0.2113572657108307
        ],
        [
          -0.07576839625835419, -0.11017927527427673, 0.20929306745529175, -0.05349987372756004,
          -0.20018915832042694, 0.1878221333026886, -0.22970952093601227, 0.19782547652721405,
          0.3160982131958008, 0.051071956753730774, 0.021321449428796768, 0.020876210182905197,
          -0.04389740154147148, -0.23181667923927307, -0.35774800181388855, 0.007628411985933781,
          -0.10221488773822784, 0.00015864390297792852, -0.2513549029827118, 0.20726636052131653,
          -0.08240987360477448, 0.393557608127594, -0.006052573677152395, 0.21138052642345428,
          0.266862154006958, -0.05420940741896629, 0.20709605515003204, -0.43101322650909424,
          -0.3329836428165436, 0.06736518442630768, 0.07369662821292877, 0.08861830085515976,
          0.2359754741191864, -0.11342184990644455, 0.4899477958679199, -0.10396778583526611,
          0.16345423460006714, 0.19675064086914062, 0.09181073307991028, 0.11179681867361069,
          -0.3213842213153839, 0.04168960079550743, -0.18438087403774261, -0.10361102223396301,
          0.28701385855674744, 0.22032374143600464, 0.06837917864322662, 0.47970840334892273,
          -0.13069427013397217, 0.04298887401819229, -0.11449076235294342, 0.215342715382576,
          0.000978524680249393, -0.30379223823547363, 0.08619334548711777, 0.04639029502868652,
          0.11622660607099533, 0.30989688634872437, 0.1085672453045845, 0.30762407183647156,
          -0.2085142284631729, -0.14619755744934082, 0.08859547227621078, 0.005843759514391422,
          0.1982690393924713, 0.0848342776298523, 0.17977775633335114, 0.42909783124923706,
          0.2916721701622009, 0.22131448984146118, 0.2467774748802185, 0.23833604156970978,
          0.011454351246356964, 0.15563473105430603, 0.20660993456840515, -0.1154613345861435,
          0.03101216070353985, 0.19902245700359344, -0.26923346519470215, 0.09119924902915955,
          -0.05835610255599022, 0.16690528392791748, -0.36062437295913696, 0.09645342081785202,
          -0.05754820257425308, -0.07966306805610657, 0.21014930307865143, 0.2568361461162567,
          0.26382675766944885, -0.26575347781181335, -0.04379071295261383, 0.03674634173512459,
          -0.11176154017448425, 0.10465606302022934, 0.03636517375707626, -0.12086118757724762,
          0.0017778800101950765, 0.05954285338521004, 0.032761357724666595, 0.20191490650177002,
          0.2633959650993347, 0.06160818412899971, -0.12041789293289185, -0.06292774528265,
          -0.1808776706457138, 0.3196622431278229, -0.25300201773643494, -0.07372534275054932,
          0.11724158376455307, 0.21693553030490875, 0.02172813005745411, -0.0010802909964695573,
          -0.29235097765922546, -0.2770494818687439, 0.04776658117771149, -0.09531018882989883,
          0.3333328366279602, 0.0389210470020771, 0.12331244349479675, -0.15624485909938812,
          0.036313045769929886, 0.19421781599521637, -0.08562007546424866, -0.09152109920978546,
          0.04433068260550499, -0.05497100204229355, 0.21801941096782684, -0.03521464020013809
        ],
        [
          0.5202781558036804, 0.18547318875789642, 0.34282779693603516, 0.24468670785427094,
          -0.1728217601776123, -0.1813611090183258, -0.04943263158202171, -0.17425304651260376,
          0.2221280187368393, -0.39511188864707947, -0.2533004879951477, 0.26989758014678955,
          -0.22232572734355927, 0.46415087580680847, -0.18354050815105438, -0.1445169597864151,
          -0.45651546120643616, -0.007255944423377514, -0.15987993776798248, -0.2680649161338806,
          -0.5823678374290466, -0.3846583962440491, 0.4749544858932495, 0.33791443705558777,
          -0.09543396532535553, 0.10591032356023788, 0.05419120937585831, 0.14688998460769653,
          -0.11871495097875595, -0.3838329017162323, 0.15740659832954407, 0.18083123862743378,
          -0.11445977538824081, 0.1880461722612381, 0.44116225838661194, 0.05898164585232735,
          0.7736185789108276, 0.49346667528152466, -0.16541127860546112, -0.2584739923477173,
          0.19743743538856506, -0.48100605607032776, 0.0009966373909264803, 0.7297590970993042,
          0.2500092089176178, -0.23520734906196594, -0.3714929521083832, -0.0619228221476078,
          0.1092735230922699, 0.17013901472091675, 0.3585013747215271, 0.5414844155311584,
          -0.26491183042526245, 0.2791288495063782, -0.19115915894508362, -0.05612820386886597,
          0.1651661992073059, -0.033524807542562485, -0.07126842439174652, -0.08281116187572479,
          -0.09686433523893356, -0.33927175402641296, -0.34008467197418213, -0.013269396498799324,
          0.30364301800727844, -0.17864179611206055, 0.3226263225078583, 0.411043643951416,
          0.31219300627708435, -0.1861974149942398, -0.5934643149375916, -0.004362010862678289,
          0.015958908945322037, 0.2032276839017868, -0.2562825679779053, -0.28305646777153015,
          -0.3332919478416443, 0.2661972641944885, -0.16771367192268372, 0.24052129685878754,
          -0.33801743388175964, -0.39232137799263, -0.5297572612762451, -0.30297771096229553,
          0.3076111376285553, -0.15252812206745148, -0.3150344789028168, -0.2614450454711914,
          -0.19220717251300812, 0.04626856744289398, 0.34007927775382996, 0.6586060523986816,
          -0.04390654340386391, -0.24327905476093292, 0.2572968900203705, 0.037082165479660034,
          0.624545156955719, -0.040115050971508026, 0.67444908618927, 0.5895442366600037,
          -0.25588175654411316, 0.28412866592407227, 0.06996951252222061, -0.2899107038974762,
          0.005166209302842617, 0.5296643376350403, 0.5291514992713928, 0.11212734878063202,
          -0.03155498951673508, -0.01698104850947857, -0.06048867106437683, 0.23341697454452515,
          0.31730902194976807, -0.09120753407478333, 0.21019327640533447, -0.00379537558183074,
          -0.12270459532737732, 0.29398006200790405, -0.39025136828422546, -0.6383703947067261,
          0.12854935228824615, -0.34849369525909424, 0.38383767008781433, 0.1703370213508606,
          -0.21317631006240845, 0.0733821764588356, -0.09445343166589737, 0.37152060866355896
        ],
        [
          0.013220773078501225, -0.26643186807632446, -0.0018125898204743862, -0.12534034252166748,
          -0.1984267681837082, 0.2639893591403961, 0.182907372713089, 0.056198425590991974,
          0.0027976662386208773, -0.11314057558774948, -0.058818019926548004, 0.174695685505867,
          -0.34435662627220154, -0.11196272820234299, -0.19719631969928741, 0.02983430214226246,
          -0.26307961344718933, 0.04324682056903839, -0.6367608308792114, 0.3792492151260376,
          -0.01845880039036274, 0.0500435046851635, 0.24699509143829346, 0.2791866958141327,
          0.15496505796909332, -0.2024689018726349, 0.3266372084617615, -0.37607893347740173,
          -0.3094322383403778, 0.12841011583805084, 0.17773427069187164, 0.09719394147396088,
          0.33311888575553894, 0.028761396184563637, 0.7370519638061523, -0.07405778020620346,
          0.2609879672527313, 0.10877924412488937, 0.15723025798797607, -0.2512543499469757,
          -0.22032442688941956, 0.17191289365291595, 0.06442108005285263, 0.06451870501041412,
          0.03903820738196373, 0.23731422424316406, 0.03932322561740875, 0.6066476106643677,
          -0.20072519779205322, 0.15929014980793, 0.12705369293689728, -0.1928332895040512,
          0.2655535340309143, 0.10905696451663971, 0.010672645643353462, -0.1376224309206009,
          -0.04822125658392906, 0.3517891764640808, -0.12823449075222015, 0.4628228545188904,
          -0.34216439723968506, 0.037832897156476974, 0.11568430811166763, 0.14815491437911987,
          0.1776227056980133, 0.11064404249191284, -0.006590463686734438, 0.41571131348609924,
          0.42058536410331726, 0.34484416246414185, 0.20412151515483856, 0.385503351688385,
          -0.13980425894260406, 0.36281251907348633, 0.2232798933982849, 0.17127788066864014,
          -0.19738391041755676, -0.06452037394046783, -0.3518534302711487, -0.006759733892977238,
          -0.034490831196308136, -0.0546872578561306, -0.5911617875099182, 0.08496925979852676,
          -0.1428895741701126, -0.20127630233764648, 0.47435909509658813, 0.14242558181285858,
          0.11710510402917862, -0.36010849475860596, -0.06922910362482071, 0.07803361117839813,
          0.2215544730424881, 0.19575008749961853, 0.23598460853099823, -0.2677965760231018,
          0.08706492185592651, -0.2804403007030487, -0.0520012341439724, 0.2926483154296875,
          0.23580355942249298, -0.040343817323446274, -0.16442863643169403, -0.08691024035215378,
          -0.1903356909751892, 0.2320178896188736, -0.08360220491886139, -0.12141931056976318,
          -0.07061437517404556, 0.37348443269729614, 0.08835075795650482, -0.2566818594932556,
          0.031874556094408035, -0.22613300383090973, 0.12704713642597198, -0.32164236903190613,
          0.2125445455312729, 0.25424134731292725, -0.05449099466204643, -0.09449494630098343,
          -0.11002615839242935, 0.3563776910305023, -0.20897504687309265, -0.3719732165336609,
          -0.07115905731916428, 0.028091711923480034, 0.35935506224632263, 0.11805211752653122
        ],
        [
          0.1471385657787323, 0.39592882990837097, 0.5251549482345581, 0.4855138659477234,
          0.2333907186985016, -0.059384554624557495, -0.006550604477524757, -0.40904733538627625,
          0.21185028553009033, -0.7365182042121887, 0.013580046594142914, 0.2817084789276123,
          -0.1950368881225586, 0.23461481928825378, -0.2624479830265045, -0.15974417328834534,
          -0.6477320194244385, -0.34264054894447327, -0.40043044090270996, -0.26890963315963745,
          -0.391275018453598, -0.11260057240724564, 0.7478953003883362, 0.32825958728790283,
          -0.27708831429481506, 0.18841351568698883, 0.22727294266223907, 0.07513385266065598,
          0.17247946560382843, -0.3751894533634186, -0.32416442036628723, 0.2369903177022934,
          -0.10757844895124435, -0.2918587923049927, 0.3256931006908417, 0.28127366304397583,
          0.5593597292900085, 0.9428671002388, -0.5892680287361145, -0.11050654202699661,
          -0.16487210988998413, -0.5923428535461426, 0.05528632178902626, 1.010097861289978,
          0.44398924708366394, -0.2793324887752533, -0.4481360614299774, 0.3648936152458191,
          0.39128100872039795, 0.5317684412002563, 0.1697375476360321, 0.5114070177078247,
          -0.45302537083625793, 0.5334891080856323, -0.6462301015853882, -0.30153805017471313,
          0.4515898525714874, 0.23850315809249878, -0.5033045411109924, -0.2548898756504059,
          0.011791052296757698, -0.11676661670207977, -0.4504368007183075, -0.0001567131548654288,
          -0.05560269206762314, -0.0898575484752655, 1.2251453399658203, 0.07275588810443878,
          0.2968612313270569, 0.07046946883201599, -0.6983841061592102, -0.32957348227500916,
          -0.014427848160266876, 0.11233125627040863, -0.04320632666349411, -0.2473309487104416,
          -0.08979343622922897, 0.20637425780296326, -0.056222058832645416, 0.16275225579738617,
          -0.31992870569229126, -0.19059598445892334, -0.39750319719314575, -0.2998836636543274,
          -0.08455245196819305, -0.12805959582328796, -0.11764054745435715, -0.23661476373672485,
          -0.20184937119483948, 0.2749401330947876, 0.21559563279151917, 0.44181087613105774,
          0.05266323313117027, -0.39933833479881287, 0.7123709321022034, 0.16025038063526154,
          0.28924527764320374, -0.2083955705165863, 0.7966518402099609, 0.41945427656173706,
          -0.12167833000421524, -0.015905430540442467, -0.39493104815483093, -0.12178241461515427,
          0.5086549520492554, 0.5165337324142456, 0.7899690270423889, 0.015031037852168083,
          -0.05819496512413025, 0.0807955414056778, -0.11442676186561584, 0.1585225760936737,
          0.6949704885482788, -0.3429144024848938, -0.008817881345748901, 0.035790517926216125,
          -0.04358941689133644, -0.082549087703228, -0.36465659737586975, -0.32576677203178406,
          -0.0727691724896431, -0.2873496413230896, -0.0857265517115593, 0.36563384532928467,
          -0.03912317752838135, 0.34934937953948975, -0.15077951550483704, 0.48369359970092773
        ],
        [
          0.012491974048316479, 0.2417602688074112, -0.49021023511886597, -0.16319410502910614,
          0.1570901870727539, 0.13091124594211578, -0.5865517854690552, -0.5386950373649597,
          -0.19986626505851746, -0.2972777485847473, -0.1778467893600464, 0.17467834055423737,
          -0.06313059478998184, -0.280699759721756, -0.21780478954315186, -0.02394101396203041,
          -0.5307807922363281, 0.19166822731494904, -0.3324405550956726, 0.3764209747314453,
          0.3141501247882843, -0.045532602816820145, -0.4292565584182739, 0.39507830142974854,
          0.0014559394912794232, -0.3185408115386963, 0.19100520014762878, 0.04739516228437424,
          0.5761058330535889, -0.30186358094215393, -0.31877487897872925, 0.35706573724746704,
          -0.3026484549045563, 0.16280752420425415, -0.020015530288219452, -0.7034183144569397,
          -0.2591538727283478, -0.01851077936589718, -0.3111533522605896, 0.012306466698646545,
          0.3698267638683319, -0.3239298164844513, -0.41604670882225037, 0.061003152281045914,
          -0.13131514191627502, -0.7387797236442566, -0.5722293853759766, -0.16874779760837555,
          -0.7338141798973083, 0.014303168281912804, 0.041522543877363205, -0.010337729007005692,
          -0.30383920669555664, 0.18046890199184418, 0.003922448027879, -0.21851855516433716,
          0.5404244065284729, 0.4490492045879364, -0.34179040789604187, -0.8743821978569031,
          -0.36051905155181885, -0.11386272311210632, -0.259773313999176, 0.3188762962818146,
          0.3330926299095154, -0.030331090092658997, 0.02997487224638462, 0.016181590035557747,
          -0.2499312460422516, -0.10433820635080338, 0.2256016582250595, -0.23051394522190094,
          -0.28227436542510986, -0.2743910849094391, -0.6519001126289368, -0.5643029808998108,
          -0.39433422684669495, 0.3505282998085022, 0.2766372561454773, 0.10509101301431656,
          -0.012614328414201736, -0.6820232272148132, -0.26271501183509827, -0.3737916946411133,
          -0.15731649100780487, 0.09222739189863205, -0.9728496074676514, -0.04701854661107063,
          0.2815805971622467, 0.5278133153915405, 0.4438791275024414, -0.04264332354068756,
          -0.37636300921440125, 0.0486183725297451, -0.4233863055706024, -0.30090638995170593,
          -0.3978040814399719, -0.37612172961235046, -0.06574904173612595, 0.291261225938797,
          -0.4332522451877594, -0.5346481204032898, 0.2632109820842743, 0.8232486248016357,
          -0.04300980269908905, -0.06536534428596497, -0.22984381020069122, -0.0885159969329834,
          0.3152310848236084, -0.4433152973651886, -0.03840111568570137, 0.2807145118713379,
          0.34735164046287537, 0.2727001905441284, 0.2020541876554489, 0.48227357864379883,
          -0.1973647028207779, -0.5023735165596008, -0.4726234972476959, 0.07229501008987427,
          0.07942113280296326, 0.21759924292564392, 0.31598299741744995, 0.4297964870929718,
          -0.11728257685899734, -0.21651463210582733, -0.11459827423095703, -0.5132586359977722
        ],
        [
          0.0720292255282402, 0.4004482626914978, -0.1764601171016693, 0.20435141026973724,
          -0.20889566838741302, 0.37119045853614807, -0.06207486242055893, -0.087971530854702,
          -0.28101250529289246, 0.17983697354793549, 0.4097151458263397, 0.9910004734992981,
          0.590152382850647, -0.3181613087654114, 0.221086323261261, 0.44962266087532043,
          0.5442730784416199, 0.07055339217185974, -0.023982379585504532, -0.16835808753967285,
          -0.08785859495401382, -0.22932109236717224, -0.05606842413544655, -0.23424598574638367,
          0.2582063674926758, -0.16097213327884674, 0.26487499475479126, 0.051455527544021606,
          0.10718867927789688, 0.1301107406616211, 0.07587327808141708, -0.06439320743083954,
          0.495821475982666, -0.5390973687171936, 0.01006656140089035, -0.339846134185791,
          -0.09822804480791092, -0.2193182110786438, -0.14493031799793243, -0.1897122859954834,
          -0.39402860403060913, 0.2293710857629776, 0.20233334600925446, -0.1733417958021164,
          -0.48799723386764526, -0.18055185675621033, 0.08104021102190018, 0.2096322476863861,
          -0.41659700870513916, 0.03479199856519699, 0.18924753367900848, 0.14130111038684845,
          0.5856994390487671, -0.2906520664691925, -0.05649956688284874, -0.24127712845802307,
          -0.02559540793299675, 0.20343057811260223, 0.32589924335479736, -0.2928319275379181,
          -0.08435162901878357, 0.2593471109867096, 0.41470250487327576, 0.25116822123527527,
          0.0923493430018425, 0.08698057383298874, 0.26521429419517517, -0.0553518645465374,
          0.14925523102283478, 0.4165582060813904, -0.30700117349624634, 0.5982069373130798,
          -0.11895857006311417, -0.15244333446025848, -0.14022275805473328, -0.0280730202794075,
          -0.29814502596855164, 0.04829320311546326, 0.0033275368623435497, 0.29790806770324707,
          -0.06750881671905518, 0.25899362564086914, -0.10324281454086304, -0.04282489791512489,
          -0.6069332361221313, 0.219460129737854, -0.27303409576416016, 0.11263605207204819,
          -0.17748114466667175, 0.2137809842824936, -0.30064690113067627, -0.09657888114452362,
          0.024747611954808235, 0.1350061446428299, 0.11616852134466171, 0.2955920994281769,
          -0.1791292428970337, -0.10522377490997314, -0.56782066822052, -0.09386094659566879,
          -0.008501246571540833, -0.041014332324266434, -0.2888842821121216, -0.15178652107715607,
          0.37386462092399597, -0.03446213901042938, -0.025806430727243423, 0.6177175641059875,
          -0.2750608026981354, -0.33962133526802063, 0.16499555110931396, -0.07248342782258987,
          0.09479490667581558, 0.1820344477891922, 0.21168726682662964, 0.2566238045692444,
          -0.10483188927173615, -0.6981926560401917, -0.05800265818834305, 0.1725451648235321,
          0.20531250536441803, 0.38118040561676025, -0.532522439956665, -0.18187938630580902,
          -0.3309129774570465, -0.05261411890387535, 0.3986426591873169, -0.05992959812283516
        ],
        [
          -0.07384784519672394, 0.2757074236869812, -0.18070238828659058, 0.26361653208732605,
          -0.20066215097904205, 0.00605344120413065, -0.1369677633047104, 0.23580271005630493,
          0.09515182673931122, -0.19427937269210815, 0.14807608723640442, 0.07570497691631317,
          0.1720249205827713, 0.1282348781824112, -0.3586556017398834, -0.1929042488336563,
          -0.07109417766332626, 0.18642444908618927, 0.3227253258228302, -0.13579654693603516,
          -0.23352332413196564, -0.07612589001655579, 0.19324184954166412, -0.00662883510813117,
          0.43065106868743896, -0.1801176220178604, -0.1574481725692749, -0.07806838303804398,
          0.13345015048980713, -0.18617463111877441, -0.3634975552558899, -0.08542679250240326,
          0.2104232758283615, 0.23181675374507904, 0.04616985470056534, -0.04776623472571373,
          -0.12306308001279831, -0.0338364876806736, -0.0670175775885582, 0.19323350489139557,
          0.06804575771093369, -0.1969674676656723, -0.2779976725578308, 0.2690839469432831,
          0.12301556766033173, -0.06368076801300049, -0.08106296509504318, 0.14569585025310516,
          -0.12252068519592285, -0.09975256025791168, -0.07193883508443832, 0.3353103697299957,
          0.04697198048233986, -0.15869678556919098, 0.015447178855538368, -0.07047907263040543,
          0.38027873635292053, 0.34257054328918457, 0.03009510599076748, -0.19237713515758514,
          -0.06766757369041443, -0.20723524689674377, -0.02348201349377632, 0.19194568693637848,
          -0.22409190237522125, -0.23363161087036133, 0.4153316617012024, 0.26798877120018005,
          0.20051832497119904, -0.14308248460292816, -0.04366278648376465, -0.2598554491996765,
          -0.037858571857213974, -0.17952552437782288, -0.4020588994026184, -0.18116575479507446,
          0.2615843713283539, 0.25885647535324097, -0.058574628084897995, 0.10982925444841385,
          0.3016568422317505, 0.006103701423853636, 0.19898678362369537, -0.08632416278123856,
          0.05712950602173805, -0.17499125003814697, -0.03000892512500286, 0.05282846465706825,
          0.0973634272813797, -0.3594715893268585, 0.32552090287208557, -0.15968312323093414,
          0.1398492157459259, -0.17981092631816864, 0.27760279178619385, -0.15550783276557922,
          -0.3272656202316284, 0.09725009649991989, 0.18763801455497742, -0.2733759582042694,
          0.18658201396465302, 0.16354942321777344, -0.07482711225748062, -0.17123453319072723,
          0.053117260336875916, 0.03559954836964607, -0.05548826605081558, 0.24851389229297638,
          0.5531267523765564, 0.073377326130867, -0.11142906546592712, 0.1397295445203781,
          -0.20838968455791473, 0.18130920827388763, 0.16722925007343292, 0.04527554661035538,
          -0.030744079500436783, 0.1293068677186966, 0.31398576498031616, -0.15584339201450348,
          0.3451302647590637, 0.4961346983909607, -0.03364524617791176, 0.024566223844885826,
          -0.26928362250328064, -0.01598639041185379, 0.08749838173389435, -0.03882872313261032
        ],
        [
          0.30016082525253296, 0.10647378861904144, -0.11046411097049713, -0.32390233874320984,
          -0.2196934074163437, -0.3274041712284088, -0.5773271322250366, 0.18463876843452454,
          0.08025456219911575, 0.1552082598209381, 0.303413450717926, 0.5204538106918335,
          0.23024851083755493, 0.3561616539955139, -0.44895249605178833, -0.12905465066432953,
          -0.06833239644765854, 0.020814167335629463, -0.3242868185043335, -0.2829628884792328,
          -0.34147170186042786, 0.06720463931560516, 0.09594842046499252, 0.20427794754505157,
          0.02527683600783348, -0.06845363974571228, -0.2282177209854126, -0.18051065504550934,
          -0.2556399405002594, -0.10210022330284119, 0.17173466086387634, 0.4872716963291168,
          -0.29754865169525146, 0.5164164304733276, 0.09599756449460983, -0.40908175706863403,
          0.6568765044212341, -0.08507495373487473, 0.303895503282547, 0.0005322534125298262,
          0.3655647039413452, -0.14310625195503235, -0.1918996125459671, 0.3798004686832428,
          -0.27392470836639404, -0.08146027475595474, 0.009190469048917294, -0.18217957019805908,
          -0.21152351796627045, -0.28013232350349426, -0.0460660457611084, 0.6094200611114502,
          0.10955850780010223, -0.27469301223754883, 0.14255140721797943, -0.03656082972884178,
          0.1674095243215561, -0.47437596321105957, 0.10340327769517899, 0.36123767495155334,
          0.4667145907878876, -0.049365174025297165, -0.050606925040483475, -0.22949177026748657,
          0.48224616050720215, -0.2073170393705368, 0.33074522018432617, 0.5281455516815186,
          -0.2641584873199463, -0.02832980826497078, 0.32897740602493286, 0.42499253153800964,
          -0.00028756167739629745, -0.4966782331466675, -0.09278000146150589, -0.4757775664329529,
          0.021495096385478973, 0.10080621391534805, -0.34980958700180054, -0.028413621708750725,
          -0.26750004291534424, -0.22962523996829987, -0.24095270037651062, -0.11718291789293289,
          0.4354306161403656, -0.09801967442035675, -0.23291686177253723, -0.04588395357131958,
          0.5788685083389282, -0.04141731560230255, 0.16388000547885895, 0.1580420732498169,
          -0.24330027401447296, -0.030956633388996124, -0.11189041286706924, -0.03814823180437088,
          0.3884489834308624, 0.11371695250272751, 0.08722597360610962, 0.20049883425235748,
          -0.010429599322378635, 0.32601967453956604, -0.10696876049041748, 0.054821304976940155,
          0.08644820004701614, 0.07748306542634964, 0.342479407787323, -0.020114559680223465,
          -0.3566466271877289, -0.23850934207439423, 0.03558102622628212, 0.1312025934457779,
          -0.5458349585533142, -0.1818760633468628, -0.21123529970645905, -0.17499245703220367,
          -0.06269697099924088, 0.18788251280784607, -0.06557507067918777, -0.10417716950178146,
          0.2146524339914322, 0.004322153516113758, 0.2364032119512558, 0.30576473474502563,
          -0.16244977712631226, 0.05223051831126213, -0.07820340991020203, -0.23747825622558594
        ],
        [
          0.03222411870956421, 0.07343536615371704, -0.019433457404375076, 0.1344980150461197,
          0.22629407048225403, -0.39067116379737854, 0.05584454908967018, 0.06898906081914902,
          0.13449695706367493, -0.2841775417327881, 0.27284082770347595, 0.20650552213191986,
          -0.187856525182724, 0.20663145184516907, 0.26369449496269226, -0.07551011443138123,
          -0.020184671506285667, -0.06569017469882965, 0.24465173482894897, 0.09448464214801788,
          -0.20736238360404968, 0.09959260374307632, -0.09886548668146133, 0.012780701741576195,
          0.1912415325641632, 0.1585043966770172, 0.2192460596561432, -0.16962848603725433,
          -0.03859211131930351, 0.07966594398021698, 0.17194578051567078, -0.09499702602624893,
          0.24027810990810394, -0.10650651156902313, -0.04170115292072296, -0.05323060229420662,
          0.15569184720516205, -0.17745061218738556, -0.20065636932849884, 0.04163545370101929,
          0.35862278938293457, 0.27235427498817444, -0.19256198406219482, 0.24730278551578522,
          0.12433123588562012, -0.09965331852436066, -0.040666136890649796, 0.11522764712572098,
          -0.08892378956079483, -0.19367849826812744, 0.19934050738811493, 0.04589006304740906,
          -0.09365890175104141, -0.300261914730072, -0.141276553273201, 0.16604913771152496,
          -0.13359393179416656, 0.2776976227760315, 0.03172241896390915, 0.14159461855888367,
          0.2145199030637741, -0.13310135900974274, 0.21296735107898712, 0.011209960095584393,
          -0.10986164957284927, 0.05691108852624893, -0.07171615958213806, -0.08917181938886642,
          0.07837115228176117, 0.14083194732666016, -0.03880954906344414, 0.05581708997488022,
          0.11094222962856293, -0.04923941567540169, 0.10947487503290176, 0.05954065918922424,
          0.1971198469400406, -0.008952477015554905, -0.3985660672187805, -0.2734452784061432,
          -0.15534335374832153, 0.3411151170730591, -0.20381972193717957, 0.07197123020887375,
          0.04746217653155327, -0.28990837931632996, 0.20878000557422638, 0.11491121351718903,
          0.18725799024105072, -0.2043839395046234, -0.1971549540758133, 0.09593884646892548,
          0.14786086976528168, 0.27121251821517944, 0.14507293701171875, -0.05520598590373993,
          -0.14717040956020355, 0.03609920293092728, -0.09910421073436737, 0.06102079153060913,
          -0.19430699944496155, -0.04715367406606674, -0.10869740694761276, -0.18598772585391998,
          0.08079609274864197, 0.2302270233631134, 0.20375356078147888, 0.05251791700720787,
          0.07891984283924103, 0.17963281273841858, 0.14940810203552246, -0.1749441772699356,
          -0.2654419541358948, -0.264154314994812, 0.30078229308128357, -0.42547959089279175,
          0.2244071513414383, 0.04654225334525108, 0.04983232915401459, -0.11147656291723251,
          -0.03973082825541496, 0.07410438358783722, 0.12704253196716309, 0.08382780849933624,
          -0.09424936026334763, 0.11912607401609421, 0.482509583234787, 0.061748091131448746
        ],
        [
          0.41666722297668457, -0.18134023249149323, -0.25145402550697327, -0.05727674812078476,
          -0.20997942984104156, -0.19620075821876526, 0.019872194156050682, -0.032684870064258575,
          0.1946844458580017, -0.36693745851516724, 0.2798405885696411, -0.03223217651247978,
          -0.1695217788219452, 0.17767776548862457, -0.16949190199375153, -0.21116569638252258,
          -0.25714778900146484, 0.008966250345110893, 0.12178901582956314, 0.11123913526535034,
          0.06946055591106415, 0.2298499196767807, -0.10585880279541016, 0.5269344449043274,
          0.05499997362494469, 0.3550839424133301, -0.3456357717514038, 0.018817106261849403,
          0.09062891453504562, -0.18847718834877014, 0.04557423293590546, 0.15547522902488708,
          -0.004954972304403782, 0.39020398259162903, 0.1846303641796112, -0.21936209499835968,
          0.2593960165977478, -0.2674734890460968, 0.38996511697769165, 0.1318528950214386,
          -0.13035936653614044, 0.021279070526361465, -0.1175585687160492, 0.21867679059505463,
          -0.19201405346393585, 0.29123973846435547, 0.42426517605781555, -0.0009200880886055529,
          0.03905100002884865, 0.014521521516144276, -0.13466762006282806, 0.03191983327269554,
          -0.5077686905860901, -0.18463627994060516, -0.1360684633255005, -0.02025707997381687,
          -0.12699730694293976, -0.41707175970077515, 0.14663371443748474, 0.08285500109195709,
          0.09932238608598709, 0.01050978247076273, -0.08641646057367325, -0.2849658131599426,
          -0.036733049899339676, -0.03440891578793526, 0.5216924548149109, -0.0451345331966877,
          -0.19074341654777527, -0.2802230715751648, 0.40740856528282166, 0.23500096797943115,
